## LambdaMART
## No. of trees = 1000
## No. of leaves = 10
## No. of threshold candidates = 256
## Learning rate = 0.1
## Stop early = 100

<ensemble>
	<tree id="1" weight="0.1">
		<split>
			<feature> 5 </feature>
			<threshold> 0.06810242 </threshold>
			<split pos="left">
				<feature> 3 </feature>
				<threshold> 0.77411705 </threshold>
				<split pos="left">
					<feature> 3 </feature>
					<threshold> 0.029773777 </threshold>
					<split pos="left">
						<feature> 5 </feature>
						<threshold> 0.053065583 </threshold>
						<split pos="left">
							<feature> 4 </feature>
							<threshold> 0.041666668 </threshold>
							<split pos="left">
								<output> -1.3712677955627441 </output>
							</split>
							<split pos="right">
								<output> 0.08208893984556198 </output>
							</split>
						</split>
						<split pos="right">
							<output> 1.2055050134658813 </output>
						</split>
					</split>
					<split pos="right">
						<feature> 3 </feature>
						<threshold> 0.033081975 </threshold>
						<split pos="left">
							<output> 1.8006869554519653 </output>
						</split>
						<split pos="right">
							<output> -0.2824987471103668 </output>
						</split>
					</split>
				</split>
				<split pos="right">
					<output> 2.0 </output>
				</split>
			</split>
			<split pos="right">
				<feature> 5 </feature>
				<threshold> 0.06912511 </threshold>
				<split pos="left">
					<output> 2.0 </output>
				</split>
				<split pos="right">
					<feature> 10 </feature>
					<threshold> 0.061009273 </threshold>
					<split pos="left">
						<feature> 5 </feature>
						<threshold> 0.078907244 </threshold>
						<split pos="left">
							<output> 1.575953483581543 </output>
						</split>
						<split pos="right">
							<output> -1.3138121366500854 </output>
						</split>
					</split>
					<split pos="right">
						<output> 1.6743563413619995 </output>
					</split>
				</split>
			</split>
		</split>
	</tree>
	<tree id="2" weight="0.1">
		<split>
			<feature> 5 </feature>
			<threshold> 0.056598634 </threshold>
			<split pos="left">
				<feature> 3 </feature>
				<threshold> 0.77411705 </threshold>
				<split pos="left">
					<feature> 3 </feature>
					<threshold> 0.029773777 </threshold>
					<split pos="left">
						<output> -1.0173790454864502 </output>
					</split>
					<split pos="right">
						<feature> 3 </feature>
						<threshold> 0.033081975 </threshold>
						<split pos="left">
							<feature> 6 </feature>
							<threshold> 0.0018986127 </threshold>
							<split pos="left">
								<output> 1.749152421951294 </output>
							</split>
							<split pos="right">
								<output> -0.23109760880470276 </output>
							</split>
						</split>
						<split pos="right">
							<output> -0.7277363538742065 </output>
						</split>
					</split>
				</split>
				<split pos="right">
					<output> 1.8007947206497192 </output>
				</split>
			</split>
			<split pos="right">
				<feature> 5 </feature>
				<threshold> 0.06912511 </threshold>
				<split pos="left">
					<feature> 5 </feature>
					<threshold> 0.06810242 </threshold>
					<split pos="left">
						<output> 0.9362751245498657 </output>
					</split>
					<split pos="right">
						<output> 1.7205519676208496 </output>
					</split>
				</split>
				<split pos="right">
					<feature> 5 </feature>
					<threshold> 0.078907244 </threshold>
					<split pos="left">
						<feature> 1 </feature>
						<threshold> 0.0625 </threshold>
						<split pos="left">
							<output> -0.22052378952503204 </output>
						</split>
						<split pos="right">
							<output> 1.754225730895996 </output>
						</split>
					</split>
					<split pos="right">
						<output> -0.06403331458568573 </output>
					</split>
				</split>
			</split>
		</split>
	</tree>
	<tree id="3" weight="0.1">
		<split>
			<feature> 5 </feature>
			<threshold> 0.056598634 </threshold>
			<split pos="left">
				<feature> 7 </feature>
				<threshold> 0.7609195 </threshold>
				<split pos="left">
					<feature> 3 </feature>
					<threshold> 0.029773777 </threshold>
					<split pos="left">
						<output> -0.9841562509536743 </output>
					</split>
					<split pos="right">
						<feature> 3 </feature>
						<threshold> 0.033081975 </threshold>
						<split pos="left">
							<feature> 6 </feature>
							<threshold> 0.0018986127 </threshold>
							<split pos="left">
								<output> 1.5838109254837036 </output>
							</split>
							<split pos="right">
								<output> -1.5245460271835327 </output>
							</split>
						</split>
						<split pos="right">
							<output> -0.7885803580284119 </output>
						</split>
					</split>
				</split>
				<split pos="right">
					<output> 1.609985589981079 </output>
				</split>
			</split>
			<split pos="right">
				<feature> 5 </feature>
				<threshold> 0.06912511 </threshold>
				<split pos="left">
					<feature> 5 </feature>
					<threshold> 0.06810242 </threshold>
					<split pos="left">
						<output> 1.3046306371688843 </output>
					</split>
					<split pos="right">
						<output> 1.550338625907898 </output>
					</split>
				</split>
				<split pos="right">
					<feature> 7 </feature>
					<threshold> 0.062068965 </threshold>
					<split pos="left">
						<feature> 6 </feature>
						<threshold> 0.0018986127 </threshold>
						<split pos="left">
							<output> 1.2686445713043213 </output>
						</split>
						<split pos="right">
							<output> -1.555894374847412 </output>
						</split>
					</split>
					<split pos="right">
						<output> 1.436690330505371 </output>
					</split>
				</split>
			</split>
		</split>
	</tree>
	<tree id="4" weight="0.1">
		<split>
			<feature> 5 </feature>
			<threshold> 0.056598634 </threshold>
			<split pos="left">
				<feature> 3 </feature>
				<threshold> 0.029773777 </threshold>
				<split pos="left">
					<output> -1.2096513509750366 </output>
				</split>
				<split pos="right">
					<feature> 3 </feature>
					<threshold> 0.033081975 </threshold>
					<split pos="left">
						<feature> 6 </feature>
						<threshold> 0.0018986127 </threshold>
						<split pos="left">
							<output> 1.4624154567718506 </output>
						</split>
						<split pos="right">
							<output> -1.472801685333252 </output>
						</split>
					</split>
					<split pos="right">
						<output> 0.21197044849395752 </output>
					</split>
				</split>
			</split>
			<split pos="right">
				<feature> 5 </feature>
				<threshold> 0.06912511 </threshold>
				<split pos="left">
					<feature> 5 </feature>
					<threshold> 0.06810242 </threshold>
					<split pos="left">
						<output> 1.1064395904541016 </output>
					</split>
					<split pos="right">
						<output> 1.4285050630569458 </output>
					</split>
				</split>
				<split pos="right">
					<feature> 7 </feature>
					<threshold> 0.06097561 </threshold>
					<split pos="left">
						<feature> 6 </feature>
						<threshold> 0.0018986127 </threshold>
						<split pos="left">
							<feature> 5 </feature>
							<threshold> 0.078907244 </threshold>
							<split pos="left">
								<output> 1.4310117959976196 </output>
							</split>
							<split pos="right">
								<output> 0.15921267867088318 </output>
							</split>
						</split>
						<split pos="right">
							<output> -1.4751404523849487 </output>
						</split>
					</split>
					<split pos="right">
						<output> 1.200730323791504 </output>
					</split>
				</split>
			</split>
		</split>
	</tree>
	<tree id="5" weight="0.1">
		<split>
			<feature> 5 </feature>
			<threshold> 0.056598634 </threshold>
			<split pos="left">
				<feature> 3 </feature>
				<threshold> 0.77411705 </threshold>
				<split pos="left">
					<feature> 3 </feature>
					<threshold> 0.029773777 </threshold>
					<split pos="left">
						<output> -1.1220415830612183 </output>
					</split>
					<split pos="right">
						<feature> 3 </feature>
						<threshold> 0.033081975 </threshold>
						<split pos="left">
							<output> 1.249671459197998 </output>
						</split>
						<split pos="right">
							<output> 0.005974945612251759 </output>
						</split>
					</split>
				</split>
				<split pos="right">
					<output> 1.4132287502288818 </output>
				</split>
			</split>
			<split pos="right">
				<feature> 5 </feature>
				<threshold> 0.056932542 </threshold>
				<split pos="left">
					<output> 1.4220881462097168 </output>
				</split>
				<split pos="right">
					<feature> 4 </feature>
					<threshold> 0.0060975607 </threshold>
					<split pos="left">
						<feature> 5 </feature>
						<threshold> 0.06912511 </threshold>
						<split pos="left">
							<feature> 3 </feature>
							<threshold> 0.0 </threshold>
							<split pos="left">
								<output> 1.3331477642059326 </output>
							</split>
							<split pos="right">
								<output> -1.8158503770828247 </output>
							</split>
						</split>
						<split pos="right">
							<output> 0.6387045979499817 </output>
						</split>
					</split>
					<split pos="right">
						<feature> 6 </feature>
						<threshold> 0.0018986127 </threshold>
						<split pos="left">
							<output> 1.132349967956543 </output>
						</split>
						<split pos="right">
							<output> 0.20123128592967987 </output>
						</split>
					</split>
				</split>
			</split>
		</split>
	</tree>
	<tree id="6" weight="0.1">
		<split>
			<feature> 5 </feature>
			<threshold> 0.056598634 </threshold>
			<split pos="left">
				<feature> 3 </feature>
				<threshold> 0.029773777 </threshold>
				<split pos="left">
					<output> -1.0846867561340332 </output>
				</split>
				<split pos="right">
					<feature> 3 </feature>
					<threshold> 0.033081975 </threshold>
					<split pos="left">
						<output> 1.1778514385223389 </output>
					</split>
					<split pos="right">
						<output> 0.2431168556213379 </output>
					</split>
				</split>
			</split>
			<split pos="right">
				<feature> 5 </feature>
				<threshold> 0.06912511 </threshold>
				<split pos="left">
					<feature> 5 </feature>
					<threshold> 0.06810242 </threshold>
					<split pos="left">
						<feature> 5 </feature>
						<threshold> 0.056932542 </threshold>
						<split pos="left">
							<output> 1.337022304534912 </output>
						</split>
						<split pos="right">
							<output> -0.3347359001636505 </output>
						</split>
					</split>
					<split pos="right">
						<output> 1.2657383680343628 </output>
					</split>
				</split>
				<split pos="right">
					<feature> 3 </feature>
					<threshold> 0.052931167 </threshold>
					<split pos="left">
						<feature> 6 </feature>
						<threshold> 0.0018986127 </threshold>
						<split pos="left">
							<feature> 1 </feature>
							<threshold> 0.045454547 </threshold>
							<split pos="left">
								<output> -0.35591408610343933 </output>
							</split>
							<split pos="right">
								<output> 1.3207145929336548 </output>
							</split>
						</split>
						<split pos="right">
							<output> -0.6391547918319702 </output>
						</split>
					</split>
					<split pos="right">
						<output> 1.2163326740264893 </output>
					</split>
				</split>
			</split>
		</split>
	</tree>
	<tree id="7" weight="0.1">
		<split>
			<feature> 5 </feature>
			<threshold> 0.056598634 </threshold>
			<split pos="left">
				<feature> 3 </feature>
				<threshold> 0.77411705 </threshold>
				<split pos="left">
					<feature> 3 </feature>
					<threshold> 0.029773777 </threshold>
					<split pos="left">
						<output> -1.0044925212860107 </output>
					</split>
					<split pos="right">
						<feature> 3 </feature>
						<threshold> 0.033081975 </threshold>
						<split pos="left">
							<output> 1.1267483234405518 </output>
						</split>
						<split pos="right">
							<output> 0.0918915644288063 </output>
						</split>
					</split>
				</split>
				<split pos="right">
					<output> 1.2939130067825317 </output>
				</split>
			</split>
			<split pos="right">
				<feature> 5 </feature>
				<threshold> 0.056932542 </threshold>
				<split pos="left">
					<output> 1.2733043432235718 </output>
				</split>
				<split pos="right">
					<feature> 4 </feature>
					<threshold> 0.0060975607 </threshold>
					<split pos="left">
						<feature> 5 </feature>
						<threshold> 0.06912511 </threshold>
						<split pos="left">
							<feature> 3 </feature>
							<threshold> 0.0 </threshold>
							<split pos="left">
								<output> 1.2147068977355957 </output>
							</split>
							<split pos="right">
								<output> -1.5157504081726074 </output>
							</split>
						</split>
						<split pos="right">
							<output> 0.41295191645622253 </output>
						</split>
					</split>
					<split pos="right">
						<feature> 6 </feature>
						<threshold> 0.0018986127 </threshold>
						<split pos="left">
							<output> 0.9499414563179016 </output>
						</split>
						<split pos="right">
							<output> 0.09026618301868439 </output>
						</split>
					</split>
				</split>
			</split>
		</split>
	</tree>
	<tree id="8" weight="0.1">
		<split>
			<feature> 5 </feature>
			<threshold> 0.056598634 </threshold>
			<split pos="left">
				<feature> 7 </feature>
				<threshold> 0.7609195 </threshold>
				<split pos="left">
					<feature> 10 </feature>
					<threshold> 0.033894047 </threshold>
					<split pos="left">
						<output> -0.8587904572486877 </output>
					</split>
					<split pos="right">
						<output> 0.6870773434638977 </output>
					</split>
				</split>
				<split pos="right">
					<output> 1.2407784461975098 </output>
				</split>
			</split>
			<split pos="right">
				<feature> 5 </feature>
				<threshold> 0.056932542 </threshold>
				<split pos="left">
					<output> 1.2265441417694092 </output>
				</split>
				<split pos="right">
					<feature> 4 </feature>
					<threshold> 0.0060975607 </threshold>
					<split pos="left">
						<feature> 5 </feature>
						<threshold> 0.06912511 </threshold>
						<split pos="left">
							<feature> 3 </feature>
							<threshold> 0.0 </threshold>
							<split pos="left">
								<output> 1.1771240234375 </output>
							</split>
							<split pos="right">
								<output> -1.3959838151931763 </output>
							</split>
						</split>
						<split pos="right">
							<output> 0.3420467972755432 </output>
						</split>
					</split>
					<split pos="right">
						<feature> 6 </feature>
						<threshold> 0.0018986127 </threshold>
						<split pos="left">
							<output> 0.8752018809318542 </output>
						</split>
						<split pos="right">
							<feature> 5 </feature>
							<threshold> 0.39386234 </threshold>
							<split pos="left">
								<output> -0.862236499786377 </output>
							</split>
							<split pos="right">
								<output> 0.8587016463279724 </output>
							</split>
						</split>
					</split>
				</split>
			</split>
		</split>
	</tree>
	<tree id="9" weight="0.1">
		<split>
			<feature> 5 </feature>
			<threshold> 0.056598634 </threshold>
			<split pos="left">
				<feature> 10 </feature>
				<threshold> 0.033894047 </threshold>
				<split pos="left">
					<output> -0.8876135945320129 </output>
				</split>
				<split pos="right">
					<output> 0.7462173104286194 </output>
				</split>
			</split>
			<split pos="right">
				<feature> 5 </feature>
				<threshold> 0.056932542 </threshold>
				<split pos="left">
					<output> 1.1871813535690308 </output>
				</split>
				<split pos="right">
					<feature> 4 </feature>
					<threshold> 0.0060975607 </threshold>
					<split pos="left">
						<feature> 5 </feature>
						<threshold> 0.06912511 </threshold>
						<split pos="left">
							<feature> 3 </feature>
							<threshold> 0.0 </threshold>
							<split pos="left">
								<output> 1.1485522985458374 </output>
							</split>
							<split pos="right">
								<output> -1.3752729892730713 </output>
							</split>
						</split>
						<split pos="right">
							<output> 0.4365471303462982 </output>
						</split>
					</split>
					<split pos="right">
						<feature> 6 </feature>
						<threshold> 0.0018986127 </threshold>
						<split pos="left">
							<output> 0.997281551361084 </output>
						</split>
						<split pos="right">
							<feature> 10 </feature>
							<threshold> 0.061009273 </threshold>
							<split pos="left">
								<output> -0.7313590049743652 </output>
							</split>
							<split pos="right">
								<feature> 10 </feature>
								<threshold> 0.064398676 </threshold>
								<split pos="left">
									<output> 1.2823660373687744 </output>
								</split>
								<split pos="right">
									<output> 0.05123765021562576 </output>
								</split>
							</split>
						</split>
					</split>
				</split>
			</split>
		</split>
	</tree>
	<tree id="10" weight="0.1">
		<split>
			<feature> 5 </feature>
			<threshold> 0.056598634 </threshold>
			<split pos="left">
				<feature> 10 </feature>
				<threshold> 0.033894047 </threshold>
				<split pos="left">
					<output> -0.8446266651153564 </output>
				</split>
				<split pos="right">
					<output> 0.6586493253707886 </output>
				</split>
			</split>
			<split pos="right">
				<feature> 6 </feature>
				<threshold> 0.0037972254 </threshold>
				<split pos="left">
					<feature> 5 </feature>
					<threshold> 0.06912511 </threshold>
					<split pos="left">
						<feature> 5 </feature>
						<threshold> 0.05940379 </threshold>
						<split pos="left">
							<output> 0.9312507510185242 </output>
						</split>
						<split pos="right">
							<output> 1.1259218454360962 </output>
						</split>
					</split>
					<split pos="right">
						<feature> 1 </feature>
						<threshold> 0.0625 </threshold>
						<split pos="left">
							<output> -0.5125373601913452 </output>
						</split>
						<split pos="right">
							<feature> 5 </feature>
							<threshold> 0.10243882 </threshold>
							<split pos="left">
								<output> 1.262755274772644 </output>
							</split>
							<split pos="right">
								<output> -1.3602402210235596 </output>
							</split>
						</split>
					</split>
				</split>
				<split pos="right">
					<feature> 5 </feature>
					<threshold> 0.39386234 </threshold>
					<split pos="left">
						<output> -0.9804335236549377 </output>
					</split>
					<split pos="right">
						<feature> 4 </feature>
						<threshold> 0.041666668 </threshold>
						<split pos="left">
							<output> 1.2577862739562988 </output>
						</split>
						<split pos="right">
							<output> -2.254117488861084 </output>
						</split>
					</split>
				</split>
			</split>
		</split>
	</tree>
	<tree id="11" weight="0.1">
		<split>
			<feature> 5 </feature>
			<threshold> 0.056598634 </threshold>
			<split pos="left">
				<feature> 10 </feature>
				<threshold> 0.7592286 </threshold>
				<split pos="left">
					<feature> 10 </feature>
					<threshold> 0.033894047 </threshold>
					<split pos="left">
						<feature> 6 </feature>
						<threshold> 0.0 </threshold>
						<split pos="left">
							<output> 0.44177165627479553 </output>
						</split>
						<split pos="right">
							<output> -1.0454899072647095 </output>
						</split>
					</split>
					<split pos="right">
						<output> 0.5285900235176086 </output>
					</split>
				</split>
				<split pos="right">
					<output> 1.3809713125228882 </output>
				</split>
			</split>
			<split pos="right">
				<feature> 6 </feature>
				<threshold> 0.0037972254 </threshold>
				<split pos="left">
					<feature> 5 </feature>
					<threshold> 0.06912511 </threshold>
					<split pos="left">
						<feature> 5 </feature>
						<threshold> 0.05940379 </threshold>
						<split pos="left">
							<output> 0.879350483417511 </output>
						</split>
						<split pos="right">
							<output> 1.1067808866500854 </output>
						</split>
					</split>
					<split pos="right">
						<feature> 1 </feature>
						<threshold> 0.0625 </threshold>
						<split pos="left">
							<output> -0.5146483778953552 </output>
						</split>
						<split pos="right">
							<output> 1.1052919626235962 </output>
						</split>
					</split>
				</split>
				<split pos="right">
					<feature> 5 </feature>
					<threshold> 0.39386234 </threshold>
					<split pos="left">
						<output> -0.9968385100364685 </output>
					</split>
					<split pos="right">
						<output> 0.7976135015487671 </output>
					</split>
				</split>
			</split>
		</split>
	</tree>
	<tree id="12" weight="0.1">
		<split>
			<feature> 5 </feature>
			<threshold> 0.056598634 </threshold>
			<split pos="left">
				<feature> 10 </feature>
				<threshold> 0.7592286 </threshold>
				<split pos="left">
					<feature> 10 </feature>
					<threshold> 0.033894047 </threshold>
					<split pos="left">
						<output> -0.7824802994728088 </output>
					</split>
					<split pos="right">
						<output> 0.5314037203788757 </output>
					</split>
				</split>
				<split pos="right">
					<output> 1.3372193574905396 </output>
				</split>
			</split>
			<split pos="right">
				<feature> 5 </feature>
				<threshold> 0.056932542 </threshold>
				<split pos="left">
					<output> 1.1156213283538818 </output>
				</split>
				<split pos="right">
					<feature> 4 </feature>
					<threshold> 0.0060975607 </threshold>
					<split pos="left">
						<feature> 5 </feature>
						<threshold> 0.06912511 </threshold>
						<split pos="left">
							<feature> 3 </feature>
							<threshold> 0.0 </threshold>
							<split pos="left">
								<output> 1.0905640125274658 </output>
							</split>
							<split pos="right">
								<output> -1.306882619857788 </output>
							</split>
						</split>
						<split pos="right">
							<output> 0.712552011013031 </output>
						</split>
					</split>
					<split pos="right">
						<feature> 6 </feature>
						<threshold> 0.0018986127 </threshold>
						<split pos="left">
							<output> 0.8524045348167419 </output>
						</split>
						<split pos="right">
							<feature> 5 </feature>
							<threshold> 0.39386234 </threshold>
							<split pos="left">
								<output> -1.0912065505981445 </output>
							</split>
							<split pos="right">
								<output> 0.7283346056938171 </output>
							</split>
						</split>
					</split>
				</split>
			</split>
		</split>
	</tree>
	<tree id="13" weight="0.1">
		<split>
			<feature> 5 </feature>
			<threshold> 0.056598634 </threshold>
			<split pos="left">
				<feature> 10 </feature>
				<threshold> 0.033894047 </threshold>
				<split pos="left">
					<feature> 6 </feature>
					<threshold> 0.0 </threshold>
					<split pos="left">
						<output> 0.37600982189178467 </output>
					</split>
					<split pos="right">
						<output> -0.9987723231315613 </output>
					</split>
				</split>
				<split pos="right">
					<feature> 7 </feature>
					<threshold> 0.039215688 </threshold>
					<split pos="left">
						<output> 1.0822311639785767 </output>
					</split>
					<split pos="right">
						<output> 0.28665128350257874 </output>
					</split>
				</split>
			</split>
			<split pos="right">
				<feature> 5 </feature>
				<threshold> 0.056932542 </threshold>
				<split pos="left">
					<output> 1.0992916822433472 </output>
				</split>
				<split pos="right">
					<feature> 4 </feature>
					<threshold> 0.0060975607 </threshold>
					<split pos="left">
						<feature> 9 </feature>
						<threshold> 0.0037449407 </threshold>
						<split pos="left">
							<output> -0.23536346852779388 </output>
						</split>
						<split pos="right">
							<feature> 5 </feature>
							<threshold> 0.10243882 </threshold>
							<split pos="left">
								<output> 1.1346607208251953 </output>
							</split>
							<split pos="right">
								<output> -2.290818691253662 </output>
							</split>
						</split>
					</split>
					<split pos="right">
						<feature> 6 </feature>
						<threshold> 0.0018986127 </threshold>
						<split pos="left">
							<output> 0.8339352607727051 </output>
						</split>
						<split pos="right">
							<output> -0.13798736035823822 </output>
						</split>
					</split>
				</split>
			</split>
		</split>
	</tree>
	<tree id="14" weight="0.1">
		<split>
			<feature> 5 </feature>
			<threshold> 0.056598634 </threshold>
			<split pos="left">
				<feature> 10 </feature>
				<threshold> 0.7592286 </threshold>
				<split pos="left">
					<feature> 10 </feature>
					<threshold> 0.033894047 </threshold>
					<split pos="left">
						<output> -0.7023541331291199 </output>
					</split>
					<split pos="right">
						<feature> 7 </feature>
						<threshold> 0.039215688 </threshold>
						<split pos="left">
							<output> 1.0261108875274658 </output>
						</split>
						<split pos="right">
							<output> 0.10345113277435303 </output>
						</split>
					</split>
				</split>
				<split pos="right">
					<output> 1.2984479665756226 </output>
				</split>
			</split>
			<split pos="right">
				<feature> 5 </feature>
				<threshold> 0.056932542 </threshold>
				<split pos="left">
					<output> 1.0865434408187866 </output>
				</split>
				<split pos="right">
					<feature> 4 </feature>
					<threshold> 0.0060975607 </threshold>
					<split pos="left">
						<feature> 9 </feature>
						<threshold> 0.0037449407 </threshold>
						<split pos="left">
							<output> -0.2348915934562683 </output>
						</split>
						<split pos="right">
							<feature> 2 </feature>
							<threshold> 0.0952381 </threshold>
							<split pos="left">
								<output> 1.1195366382598877 </output>
							</split>
							<split pos="right">
								<output> -2.0090136528015137 </output>
							</split>
						</split>
					</split>
					<split pos="right">
						<feature> 6 </feature>
						<threshold> 0.0018986127 </threshold>
						<split pos="left">
							<output> 0.7937402129173279 </output>
						</split>
						<split pos="right">
							<output> -0.119990773499012 </output>
						</split>
					</split>
				</split>
			</split>
		</split>
	</tree>
	<tree id="15" weight="0.1">
		<split>
			<feature> 5 </feature>
			<threshold> 0.39386234 </threshold>
			<split pos="left">
				<feature> 10 </feature>
				<threshold> 0.7592286 </threshold>
				<split pos="left">
					<feature> 5 </feature>
					<threshold> 0.056598634 </threshold>
					<split pos="left">
						<feature> 10 </feature>
						<threshold> 0.033894047 </threshold>
						<split pos="left">
							<feature> 6 </feature>
							<threshold> 0.0 </threshold>
							<split pos="left">
								<output> 0.4009249210357666 </output>
							</split>
							<split pos="right">
								<output> -0.9525038003921509 </output>
							</split>
						</split>
						<split pos="right">
							<feature> 7 </feature>
							<threshold> 0.039215688 </threshold>
							<split pos="left">
								<output> 0.8841665387153625 </output>
							</split>
							<split pos="right">
								<output> 0.0582551509141922 </output>
							</split>
						</split>
					</split>
					<split pos="right">
						<feature> 6 </feature>
						<threshold> 0.0037972254 </threshold>
						<split pos="left">
							<feature> 4 </feature>
							<threshold> 0.016393442 </threshold>
							<split pos="left">
								<feature> 5 </feature>
								<threshold> 0.10243882 </threshold>
								<split pos="left">
									<output> 1.0837023258209229 </output>
								</split>
								<split pos="right">
									<output> -0.22826296091079712 </output>
								</split>
							</split>
							<split pos="right">
								<output> -1.5879168510437012 </output>
							</split>
						</split>
						<split pos="right">
							<output> -0.7302001714706421 </output>
						</split>
					</split>
				</split>
				<split pos="right">
					<output> 0.7632281184196472 </output>
				</split>
			</split>
			<split pos="right">
				<output> 0.7417935132980347 </output>
			</split>
		</split>
	</tree>
	<tree id="16" weight="0.1">
		<split>
			<feature> 5 </feature>
			<threshold> 0.056598634 </threshold>
			<split pos="left">
				<feature> 10 </feature>
				<threshold> 0.7592286 </threshold>
				<split pos="left">
					<feature> 10 </feature>
					<threshold> 0.033894047 </threshold>
					<split pos="left">
						<feature> 6 </feature>
						<threshold> 0.0 </threshold>
						<split pos="left">
							<output> 0.33283179998397827 </output>
						</split>
						<split pos="right">
							<output> -0.9221660494804382 </output>
						</split>
					</split>
					<split pos="right">
						<feature> 7 </feature>
						<threshold> 0.05383023 </threshold>
						<split pos="left">
							<output> 0.8126169443130493 </output>
						</split>
						<split pos="right">
							<output> -0.09788763523101807 </output>
						</split>
					</split>
				</split>
				<split pos="right">
					<output> 1.321962594985962 </output>
				</split>
			</split>
			<split pos="right">
				<feature> 6 </feature>
				<threshold> 0.0037972254 </threshold>
				<split pos="left">
					<feature> 4 </feature>
					<threshold> 0.016393442 </threshold>
					<split pos="left">
						<feature> 6 </feature>
						<threshold> 0.0018986127 </threshold>
						<split pos="left">
							<output> 0.9218840003013611 </output>
						</split>
						<split pos="right">
							<output> 1.055554747581482 </output>
						</split>
					</split>
					<split pos="right">
						<output> -1.3292770385742188 </output>
					</split>
				</split>
				<split pos="right">
					<feature> 5 </feature>
					<threshold> 0.39386234 </threshold>
					<split pos="left">
						<output> -0.8200312852859497 </output>
					</split>
					<split pos="right">
						<output> 0.5895729064941406 </output>
					</split>
				</split>
			</split>
		</split>
	</tree>
	<tree id="17" weight="0.1">
		<split>
			<feature> 7 </feature>
			<threshold> 0.875 </threshold>
			<split pos="left">
				<feature> 10 </feature>
				<threshold> 0.7592286 </threshold>
				<split pos="left">
					<feature> 5 </feature>
					<threshold> 0.056598634 </threshold>
					<split pos="left">
						<feature> 10 </feature>
						<threshold> 0.033894047 </threshold>
						<split pos="left">
							<output> -0.6201502680778503 </output>
						</split>
						<split pos="right">
							<feature> 7 </feature>
							<threshold> 0.05383023 </threshold>
							<split pos="left">
								<output> 0.8102357983589172 </output>
							</split>
							<split pos="right">
								<output> -0.23282241821289062 </output>
							</split>
						</split>
					</split>
					<split pos="right">
						<feature> 5 </feature>
						<threshold> 0.056932542 </threshold>
						<split pos="left">
							<output> 1.0620388984680176 </output>
						</split>
						<split pos="right">
							<feature> 4 </feature>
							<threshold> 0.0060975607 </threshold>
							<split pos="left">
								<feature> 9 </feature>
								<threshold> 0.0037449407 </threshold>
								<split pos="left">
									<output> -0.3636217415332794 </output>
								</split>
								<split pos="right">
									<output> 1.0235776901245117 </output>
								</split>
							</split>
							<split pos="right">
								<feature> 3 </feature>
								<threshold> 0.052931167 </threshold>
								<split pos="left">
									<output> -0.22342297434806824 </output>
								</split>
								<split pos="right">
									<output> 1.0505965948104858 </output>
								</split>
							</split>
						</split>
					</split>
				</split>
				<split pos="right">
					<output> 1.2992348670959473 </output>
				</split>
			</split>
			<split pos="right">
				<output> -3.634742021560669 </output>
			</split>
		</split>
	</tree>
	<tree id="18" weight="0.1">
		<split>
			<feature> 6 </feature>
			<threshold> 0.47655237 </threshold>
			<split pos="left">
				<feature> 10 </feature>
				<threshold> 0.7592286 </threshold>
				<split pos="left">
					<feature> 5 </feature>
					<threshold> 0.06810242 </threshold>
					<split pos="left">
						<feature> 10 </feature>
						<threshold> 0.033894047 </threshold>
						<split pos="left">
							<feature> 6 </feature>
							<threshold> 0.0 </threshold>
							<split pos="left">
								<feature> 3 </feature>
								<threshold> 0.02646558 </threshold>
								<split pos="left">
									<output> -1.040643572807312 </output>
								</split>
								<split pos="right">
									<output> 1.016919732093811 </output>
								</split>
							</split>
							<split pos="right">
								<output> -0.7554803490638733 </output>
							</split>
						</split>
						<split pos="right">
							<feature> 7 </feature>
							<threshold> 0.05383023 </threshold>
							<split pos="left">
								<output> 0.7696300148963928 </output>
							</split>
							<split pos="right">
								<output> -0.23259252309799194 </output>
							</split>
						</split>
					</split>
					<split pos="right">
						<feature> 5 </feature>
						<threshold> 0.06912511 </threshold>
						<split pos="left">
							<output> 1.048349380493164 </output>
						</split>
						<split pos="right">
							<feature> 3 </feature>
							<threshold> 0.056239367 </threshold>
							<split pos="left">
								<output> 0.10639263689517975 </output>
							</split>
							<split pos="right">
								<output> 1.0652577877044678 </output>
							</split>
						</split>
					</split>
				</split>
				<split pos="right">
					<output> 1.0709384679794312 </output>
				</split>
			</split>
			<split pos="right">
				<output> -4.181719779968262 </output>
			</split>
		</split>
	</tree>
	<tree id="19" weight="0.1">
		<split>
			<feature> 7 </feature>
			<threshold> 0.875 </threshold>
			<split pos="left">
				<feature> 10 </feature>
				<threshold> 0.7592286 </threshold>
				<split pos="left">
					<feature> 5 </feature>
					<threshold> 0.35560724 </threshold>
					<split pos="left">
						<feature> 6 </feature>
						<threshold> 0.0037972254 </threshold>
						<split pos="left">
							<feature> 5 </feature>
							<threshold> 0.055369645 </threshold>
							<split pos="left">
								<feature> 3 </feature>
								<threshold> 0.029773777 </threshold>
								<split pos="left">
									<output> -0.5902206301689148 </output>
								</split>
								<split pos="right">
									<feature> 3 </feature>
									<threshold> 0.033081975 </threshold>
									<split pos="left">
										<output> 1.150687575340271 </output>
									</split>
									<split pos="right">
										<output> 0.4245847463607788 </output>
									</split>
								</split>
							</split>
							<split pos="right">
								<output> 0.7485949993133545 </output>
							</split>
						</split>
						<split pos="right">
							<feature> 8 </feature>
							<threshold> 0.33333334 </threshold>
							<split pos="left">
								<feature> 4 </feature>
								<threshold> 0.05 </threshold>
								<split pos="left">
									<output> -0.793183445930481 </output>
								</split>
								<split pos="right">
									<output> 0.29475969076156616 </output>
								</split>
							</split>
							<split pos="right">
								<output> -2.396395683288574 </output>
							</split>
						</split>
					</split>
					<split pos="right">
						<output> 0.5489869117736816 </output>
					</split>
				</split>
				<split pos="right">
					<output> 1.2572085857391357 </output>
				</split>
			</split>
			<split pos="right">
				<output> -2.8070952892303467 </output>
			</split>
		</split>
	</tree>
	<tree id="20" weight="0.1">
		<split>
			<feature> 10 </feature>
			<threshold> 0.7592286 </threshold>
			<split pos="left">
				<feature> 5 </feature>
				<threshold> 0.056598634 </threshold>
				<split pos="left">
					<feature> 6 </feature>
					<threshold> 0.47655237 </threshold>
					<split pos="left">
						<feature> 11 </feature>
						<threshold> 0.13583116 </threshold>
						<split pos="left">
							<feature> 10 </feature>
							<threshold> 0.033894047 </threshold>
							<split pos="left">
								<output> -0.5993185043334961 </output>
							</split>
							<split pos="right">
								<feature> 1 </feature>
								<threshold> 0.083333336 </threshold>
								<split pos="left">
									<output> 0.10596292465925217 </output>
								</split>
								<split pos="right">
									<output> 1.059409260749817 </output>
								</split>
							</split>
						</split>
						<split pos="right">
							<output> -1.651990294456482 </output>
						</split>
					</split>
					<split pos="right">
						<output> -2.6935179233551025 </output>
					</split>
				</split>
				<split pos="right">
					<feature> 5 </feature>
					<threshold> 0.056932542 </threshold>
					<split pos="left">
						<output> 1.0526872873306274 </output>
					</split>
					<split pos="right">
						<feature> 4 </feature>
						<threshold> 0.0060975607 </threshold>
						<split pos="left">
							<output> 0.7861121892929077 </output>
						</split>
						<split pos="right">
							<feature> 3 </feature>
							<threshold> 0.052931167 </threshold>
							<split pos="left">
								<output> -0.2052837312221527 </output>
							</split>
							<split pos="right">
								<output> 0.8883943557739258 </output>
							</split>
						</split>
					</split>
				</split>
			</split>
			<split pos="right">
				<output> 1.0416851043701172 </output>
			</split>
		</split>
	</tree>
	<tree id="21" weight="0.1">
		<split>
			<feature> 10 </feature>
			<threshold> 0.03728345 </threshold>
			<split pos="left">
				<feature> 6 </feature>
				<threshold> 0.005695838 </threshold>
				<split pos="left">
					<feature> 5 </feature>
					<threshold> 0.055369645 </threshold>
					<split pos="left">
						<feature> 3 </feature>
						<threshold> 0.029773777 </threshold>
						<split pos="left">
							<output> -0.8130564093589783 </output>
						</split>
						<split pos="right">
							<feature> 3 </feature>
							<threshold> 0.033081975 </threshold>
							<split pos="left">
								<output> 1.1389038562774658 </output>
							</split>
							<split pos="right">
								<output> -1.1750925779342651 </output>
							</split>
						</split>
					</split>
					<split pos="right">
						<feature> 4 </feature>
						<threshold> 0.016393442 </threshold>
						<split pos="left">
							<output> 0.8393129706382751 </output>
						</split>
						<split pos="right">
							<output> -0.26686161756515503 </output>
						</split>
					</split>
				</split>
				<split pos="right">
					<output> -0.9462878108024597 </output>
				</split>
			</split>
			<split pos="right">
				<feature> 5 </feature>
				<threshold> 0.39386234 </threshold>
				<split pos="left">
					<feature> 4 </feature>
					<threshold> 0.041666668 </threshold>
					<split pos="left">
						<output> -0.34358713030815125 </output>
					</split>
					<split pos="right">
						<feature> 10 </feature>
						<threshold> 0.054230466 </threshold>
						<split pos="left">
							<output> 1.2406203746795654 </output>
						</split>
						<split pos="right">
							<output> 0.5242486596107483 </output>
						</split>
					</split>
				</split>
				<split pos="right">
					<output> 0.8972156047821045 </output>
				</split>
			</split>
		</split>
	</tree>
	<tree id="22" weight="0.1">
		<split>
			<feature> 7 </feature>
			<threshold> 0.875 </threshold>
			<split pos="left">
				<feature> 10 </feature>
				<threshold> 0.7592286 </threshold>
				<split pos="left">
					<feature> 2 </feature>
					<threshold> 0.6451613 </threshold>
					<split pos="left">
						<feature> 5 </feature>
						<threshold> 0.35560724 </threshold>
						<split pos="left">
							<feature> 6 </feature>
							<threshold> 0.011391676 </threshold>
							<split pos="left">
								<feature> 10 </feature>
								<threshold> 0.07795629 </threshold>
								<split pos="left">
									<feature> 5 </feature>
									<threshold> 0.056598634 </threshold>
									<split pos="left">
										<output> -0.21804429590702057 </output>
									</split>
									<split pos="right">
										<feature> 4 </feature>
										<threshold> 0.016393442 </threshold>
										<split pos="left">
											<output> 0.8376026153564453 </output>
										</split>
										<split pos="right">
											<output> -0.42316269874572754 </output>
										</split>
									</split>
								</split>
								<split pos="right">
									<feature> 10 </feature>
									<threshold> 0.0881245 </threshold>
									<split pos="left">
										<output> 1.3053538799285889 </output>
									</split>
									<split pos="right">
										<output> 0.4809032082557678 </output>
									</split>
								</split>
							</split>
							<split pos="right">
								<output> -0.5384687185287476 </output>
							</split>
						</split>
						<split pos="right">
							<output> 0.6541251540184021 </output>
						</split>
					</split>
					<split pos="right">
						<output> -3.1238961219787598 </output>
					</split>
				</split>
				<split pos="right">
					<output> 1.2021151781082153 </output>
				</split>
			</split>
			<split pos="right">
				<output> -2.24167799949646 </output>
			</split>
		</split>
	</tree>
	<tree id="23" weight="0.1">
		<split>
			<feature> 7 </feature>
			<threshold> 0.875 </threshold>
			<split pos="left">
				<feature> 10 </feature>
				<threshold> 0.7592286 </threshold>
				<split pos="left">
					<feature> 3 </feature>
					<threshold> 0.029773777 </threshold>
					<split pos="left">
						<feature> 2 </feature>
						<threshold> 0.6666667 </threshold>
						<split pos="left">
							<feature> 10 </feature>
							<threshold> 0.07795629 </threshold>
							<split pos="left">
								<feature> 5 </feature>
								<threshold> 0.20272416 </threshold>
								<split pos="left">
									<feature> 5 </feature>
									<threshold> 0.18543218 </threshold>
									<split pos="left">
										<output> -0.3390437662601471 </output>
									</split>
									<split pos="right">
										<output> 4.071077346801758 </output>
									</split>
								</split>
								<split pos="right">
									<output> -1.4364794492721558 </output>
								</split>
							</split>
							<split pos="right">
								<output> 0.5014653205871582 </output>
							</split>
						</split>
						<split pos="right">
							<output> -3.0850749015808105 </output>
						</split>
					</split>
					<split pos="right">
						<feature> 5 </feature>
						<threshold> 0.33982778 </threshold>
						<split pos="left">
							<feature> 3 </feature>
							<threshold> 0.033081975 </threshold>
							<split pos="left">
								<output> 0.9053478240966797 </output>
							</split>
							<split pos="right">
								<output> 0.0952257364988327 </output>
							</split>
						</split>
						<split pos="right">
							<output> 1.1007686853408813 </output>
						</split>
					</split>
				</split>
				<split pos="right">
					<output> 1.1936348676681519 </output>
				</split>
			</split>
			<split pos="right">
				<output> -1.9613456726074219 </output>
			</split>
		</split>
	</tree>
	<tree id="24" weight="0.1">
		<split>
			<feature> 6 </feature>
			<threshold> 0.47655237 </threshold>
			<split pos="left">
				<feature> 10 </feature>
				<threshold> 0.044062257 </threshold>
				<split pos="left">
					<feature> 6 </feature>
					<threshold> 0.005695838 </threshold>
					<split pos="left">
						<feature> 5 </feature>
						<threshold> 0.055369645 </threshold>
						<split pos="left">
							<feature> 3 </feature>
							<threshold> 0.029773777 </threshold>
							<split pos="left">
								<output> -0.5643186569213867 </output>
							</split>
							<split pos="right">
								<output> 0.5670021176338196 </output>
							</split>
						</split>
						<split pos="right">
							<feature> 11 </feature>
							<threshold> 0.0075461767 </threshold>
							<split pos="left">
								<output> 0.8574290871620178 </output>
							</split>
							<split pos="right">
								<output> -1.2931419610977173 </output>
							</split>
						</split>
					</split>
					<split pos="right">
						<output> -0.9084380865097046 </output>
					</split>
				</split>
				<split pos="right">
					<feature> 5 </feature>
					<threshold> 0.39386234 </threshold>
					<split pos="left">
						<feature> 4 </feature>
						<threshold> 0.041666668 </threshold>
						<split pos="left">
							<output> -0.3537063002586365 </output>
						</split>
						<split pos="right">
							<feature> 10 </feature>
							<threshold> 0.054230466 </threshold>
							<split pos="left">
								<output> 1.224022626876831 </output>
							</split>
							<split pos="right">
								<output> 0.41831541061401367 </output>
							</split>
						</split>
					</split>
					<split pos="right">
						<output> 1.040406346321106 </output>
					</split>
				</split>
			</split>
			<split pos="right">
				<output> -2.2208504676818848 </output>
			</split>
		</split>
	</tree>
	<tree id="25" weight="0.1">
		<split>
			<feature> 10 </feature>
			<threshold> 0.03728345 </threshold>
			<split pos="left">
				<feature> 5 </feature>
				<threshold> 0.056598634 </threshold>
				<split pos="left">
					<output> -0.5398763418197632 </output>
				</split>
				<split pos="right">
					<feature> 6 </feature>
					<threshold> 0.005695838 </threshold>
					<split pos="left">
						<feature> 11 </feature>
						<threshold> 0.0075461767 </threshold>
						<split pos="left">
							<feature> 11 </feature>
							<threshold> 0.0037730883 </threshold>
							<split pos="left">
								<output> 0.5355478525161743 </output>
							</split>
							<split pos="right">
								<output> 1.170046091079712 </output>
							</split>
						</split>
						<split pos="right">
							<output> -1.2733173370361328 </output>
						</split>
					</split>
					<split pos="right">
						<output> -0.6610948443412781 </output>
					</split>
				</split>
			</split>
			<split pos="right">
				<feature> 5 </feature>
				<threshold> 0.39386234 </threshold>
				<split pos="left">
					<feature> 4 </feature>
					<threshold> 0.041666668 </threshold>
					<split pos="left">
						<output> -0.21732452511787415 </output>
					</split>
					<split pos="right">
						<feature> 10 </feature>
						<threshold> 0.054230466 </threshold>
						<split pos="left">
							<output> 1.2022768259048462 </output>
						</split>
						<split pos="right">
							<feature> 2 </feature>
							<threshold> 0.3 </threshold>
							<split pos="left">
								<output> 0.24720317125320435 </output>
							</split>
							<split pos="right">
								<output> 1.1949940919876099 </output>
							</split>
						</split>
					</split>
				</split>
				<split pos="right">
					<output> 1.0193400382995605 </output>
				</split>
			</split>
		</split>
	</tree>
	<tree id="26" weight="0.1">
		<split>
			<feature> 10 </feature>
			<threshold> 0.03728345 </threshold>
			<split pos="left">
				<feature> 9 </feature>
				<threshold> 0.018724704 </threshold>
				<split pos="left">
					<feature> 3 </feature>
					<threshold> 0.15548527 </threshold>
					<split pos="left">
						<feature> 5 </feature>
						<threshold> 0.056598634 </threshold>
						<split pos="left">
							<feature> 3 </feature>
							<threshold> 0.029773777 </threshold>
							<split pos="left">
								<output> -0.8048997521400452 </output>
							</split>
							<split pos="right">
								<output> 0.6313466429710388 </output>
							</split>
						</split>
						<split pos="right">
							<feature> 6 </feature>
							<threshold> 0.0037972254 </threshold>
							<split pos="left">
								<output> 0.6353261470794678 </output>
							</split>
							<split pos="right">
								<output> -0.24869376420974731 </output>
							</split>
						</split>
					</split>
					<split pos="right">
						<output> 1.3537713289260864 </output>
					</split>
				</split>
				<split pos="right">
					<output> -1.0711040496826172 </output>
				</split>
			</split>
			<split pos="right">
				<feature> 5 </feature>
				<threshold> 0.39386234 </threshold>
				<split pos="left">
					<feature> 6 </feature>
					<threshold> 0.011391676 </threshold>
					<split pos="left">
						<feature> 7 </feature>
						<threshold> 0.0 </threshold>
						<split pos="left">
							<output> 1.0685570240020752 </output>
						</split>
						<split pos="right">
							<output> 0.42953935265541077 </output>
						</split>
					</split>
					<split pos="right">
						<output> -0.21942414343357086 </output>
					</split>
				</split>
				<split pos="right">
					<output> 0.9998511075973511 </output>
				</split>
			</split>
		</split>
	</tree>
	<tree id="27" weight="0.1">
		<split>
			<feature> 1 </feature>
			<threshold> 0.11111111 </threshold>
			<split pos="left">
				<feature> 10 </feature>
				<threshold> 0.03728345 </threshold>
				<split pos="left">
					<feature> 5 </feature>
					<threshold> 0.067136936 </threshold>
					<split pos="left">
						<feature> 3 </feature>
						<threshold> 0.029773777 </threshold>
						<split pos="left">
							<output> -0.6159011721611023 </output>
						</split>
						<split pos="right">
							<output> 0.3076450526714325 </output>
						</split>
					</split>
					<split pos="right">
						<feature> 5 </feature>
						<threshold> 0.06912511 </threshold>
						<split pos="left">
							<output> 1.0355037450790405 </output>
						</split>
						<split pos="right">
							<feature> 3 </feature>
							<threshold> 0.15548527 </threshold>
							<split pos="left">
								<output> 0.006425665691494942 </output>
							</split>
							<split pos="right">
								<output> 1.0624628067016602 </output>
							</split>
						</split>
					</split>
				</split>
				<split pos="right">
					<feature> 5 </feature>
					<threshold> 0.39386234 </threshold>
					<split pos="left">
						<feature> 1 </feature>
						<threshold> 0.083333336 </threshold>
						<split pos="left">
							<output> 0.08423969894647598 </output>
						</split>
						<split pos="right">
							<feature> 6 </feature>
							<threshold> 0.011391676 </threshold>
							<split pos="left">
								<output> 1.2643896341323853 </output>
							</split>
							<split pos="right">
								<output> -0.31342849135398865 </output>
							</split>
						</split>
					</split>
					<split pos="right">
						<output> 1.0722880363464355 </output>
					</split>
				</split>
			</split>
			<split pos="right">
				<output> -1.4353574514389038 </output>
			</split>
		</split>
	</tree>
	<tree id="28" weight="0.1">
		<split>
			<feature> 10 </feature>
			<threshold> 0.3287725 </threshold>
			<split pos="left">
				<feature> 9 </feature>
				<threshold> 0.03744941 </threshold>
				<split pos="left">
					<feature> 9 </feature>
					<threshold> 0.033704467 </threshold>
					<split pos="left">
						<feature> 3 </feature>
						<threshold> 0.029773777 </threshold>
						<split pos="left">
							<feature> 10 </feature>
							<threshold> 0.15591256 </threshold>
							<split pos="left">
								<feature> 5 </feature>
								<threshold> 0.056598634 </threshold>
								<split pos="left">
									<output> -0.6201114058494568 </output>
								</split>
								<split pos="right">
									<feature> 5 </feature>
									<threshold> 0.056932542 </threshold>
									<split pos="left">
										<output> 1.0330032110214233 </output>
									</split>
									<split pos="right">
										<output> 0.18827612698078156 </output>
									</split>
								</split>
							</split>
							<split pos="right">
								<output> 0.8217695951461792 </output>
							</split>
						</split>
						<split pos="right">
							<feature> 6 </feature>
							<threshold> 0.005695838 </threshold>
							<split pos="left">
								<feature> 3 </feature>
								<threshold> 0.033081975 </threshold>
								<split pos="left">
									<output> 1.0901652574539185 </output>
								</split>
								<split pos="right">
									<output> 0.9444227814674377 </output>
								</split>
							</split>
							<split pos="right">
								<output> -0.10516315698623657 </output>
							</split>
						</split>
					</split>
					<split pos="right">
						<output> 0.9539725184440613 </output>
					</split>
				</split>
				<split pos="right">
					<output> -0.9483602643013 </output>
				</split>
			</split>
			<split pos="right">
				<output> 0.6080639958381653 </output>
			</split>
		</split>
	</tree>
	<tree id="29" weight="0.1">
		<split>
			<feature> 10 </feature>
			<threshold> 0.3287725 </threshold>
			<split pos="left">
				<feature> 10 </feature>
				<threshold> 0.1999748 </threshold>
				<split pos="left">
					<feature> 10 </feature>
					<threshold> 0.18302779 </threshold>
					<split pos="left">
						<feature> 10 </feature>
						<threshold> 0.17963839 </threshold>
						<split pos="left">
							<feature> 10 </feature>
							<threshold> 0.15252316 </threshold>
							<split pos="left">
								<feature> 6 </feature>
								<threshold> 0.07594448 </threshold>
								<split pos="left">
									<feature> 5 </feature>
									<threshold> 0.056598634 </threshold>
									<split pos="left">
										<feature> 10 </feature>
										<threshold> 0.03728345 </threshold>
										<split pos="left">
											<output> -0.40558597445487976 </output>
										</split>
										<split pos="right">
											<output> 0.33272868394851685 </output>
										</split>
									</split>
									<split pos="right">
										<feature> 5 </feature>
										<threshold> 0.056932542 </threshold>
										<split pos="left">
											<output> 1.0300160646438599 </output>
										</split>
										<split pos="right">
											<output> 0.34638041257858276 </output>
										</split>
									</split>
								</split>
								<split pos="right">
									<output> -1.27474045753479 </output>
								</split>
							</split>
							<split pos="right">
								<output> 0.817574143409729 </output>
							</split>
						</split>
						<split pos="right">
							<output> -2.4564480781555176 </output>
						</split>
					</split>
					<split pos="right">
						<output> 1.9371165037155151 </output>
					</split>
				</split>
				<split pos="right">
					<output> -1.4128562211990356 </output>
				</split>
			</split>
			<split pos="right">
				<output> 0.5486649870872498 </output>
			</split>
		</split>
	</tree>
	<tree id="30" weight="0.1">
		<split>
			<feature> 1 </feature>
			<threshold> 0.11111111 </threshold>
			<split pos="left">
				<feature> 10 </feature>
				<threshold> 0.03728345 </threshold>
				<split pos="left">
					<feature> 5 </feature>
					<threshold> 0.30306882 </threshold>
					<split pos="left">
						<feature> 5 </feature>
						<threshold> 0.2799132 </threshold>
						<split pos="left">
							<feature> 5 </feature>
							<threshold> 0.067136936 </threshold>
							<split pos="left">
								<feature> 6 </feature>
								<threshold> 0.0 </threshold>
								<split pos="left">
									<output> 0.4105727970600128 </output>
								</split>
								<split pos="right">
									<output> -0.5327670574188232 </output>
								</split>
							</split>
							<split pos="right">
								<feature> 5 </feature>
								<threshold> 0.06912511 </threshold>
								<split pos="left">
									<output> 1.03609299659729 </output>
								</split>
								<split pos="right">
									<output> 0.18486806750297546 </output>
								</split>
							</split>
						</split>
						<split pos="right">
							<output> 1.240882396697998 </output>
						</split>
					</split>
					<split pos="right">
						<output> -1.3695813417434692 </output>
					</split>
				</split>
				<split pos="right">
					<feature> 5 </feature>
					<threshold> 0.39386234 </threshold>
					<split pos="left">
						<feature> 1 </feature>
						<threshold> 0.083333336 </threshold>
						<split pos="left">
							<output> 0.09324899315834045 </output>
						</split>
						<split pos="right">
							<output> 0.7140929698944092 </output>
						</split>
					</split>
					<split pos="right">
						<output> 1.0593266487121582 </output>
					</split>
				</split>
			</split>
			<split pos="right">
				<output> -1.307267427444458 </output>
			</split>
		</split>
	</tree>
	<tree id="31" weight="0.1">
		<split>
			<feature> 9 </feature>
			<threshold> 0.0936235 </threshold>
			<split pos="left">
				<feature> 10 </feature>
				<threshold> 0.033894047 </threshold>
				<split pos="left">
					<feature> 3 </feature>
					<threshold> 0.15548527 </threshold>
					<split pos="left">
						<feature> 5 </feature>
						<threshold> 0.1879587 </threshold>
						<split pos="left">
							<feature> 5 </feature>
							<threshold> 0.18543218 </threshold>
							<split pos="left">
								<feature> 6 </feature>
								<threshold> 0.0037972254 </threshold>
								<split pos="left">
									<feature> 5 </feature>
									<threshold> 0.055369645 </threshold>
									<split pos="left">
										<output> 0.17838723957538605 </output>
									</split>
									<split pos="right">
										<output> 0.522822916507721 </output>
									</split>
								</split>
								<split pos="right">
									<output> -0.9024837613105774 </output>
								</split>
							</split>
							<split pos="right">
								<output> 3.1114513874053955 </output>
							</split>
						</split>
						<split pos="right">
							<output> -1.4062250852584839 </output>
						</split>
					</split>
					<split pos="right">
						<output> 0.9938899278640747 </output>
					</split>
				</split>
				<split pos="right">
					<feature> 5 </feature>
					<threshold> 0.39386234 </threshold>
					<split pos="left">
						<feature> 6 </feature>
						<threshold> 0.011391676 </threshold>
						<split pos="left">
							<output> 0.5513553619384766 </output>
						</split>
						<split pos="right">
							<output> -0.20492509007453918 </output>
						</split>
					</split>
					<split pos="right">
						<output> 0.9826116561889648 </output>
					</split>
				</split>
			</split>
			<split pos="right">
				<output> -0.7306665778160095 </output>
			</split>
		</split>
	</tree>
	<tree id="32" weight="0.1">
		<split>
			<feature> 2 </feature>
			<threshold> 0.6451613 </threshold>
			<split pos="left">
				<feature> 9 </feature>
				<threshold> 0.0936235 </threshold>
				<split pos="left">
					<feature> 3 </feature>
					<threshold> 0.029773777 </threshold>
					<split pos="left">
						<feature> 10 </feature>
						<threshold> 0.07795629 </threshold>
						<split pos="left">
							<feature> 5 </feature>
							<threshold> 0.20272416 </threshold>
							<split pos="left">
								<feature> 5 </feature>
								<threshold> 0.18543218 </threshold>
								<split pos="left">
									<feature> 6 </feature>
									<threshold> 0.0037972254 </threshold>
									<split pos="left">
										<feature> 5 </feature>
										<threshold> 0.055369645 </threshold>
										<split pos="left">
											<output> 0.0299817007035017 </output>
										</split>
										<split pos="right">
											<output> 0.48671382665634155 </output>
										</split>
									</split>
									<split pos="right">
										<output> -0.8474944233894348 </output>
									</split>
								</split>
								<split pos="right">
									<output> 2.305711030960083 </output>
								</split>
							</split>
							<split pos="right">
								<output> -1.2152057886123657 </output>
							</split>
						</split>
						<split pos="right">
							<output> 0.47323814034461975 </output>
						</split>
					</split>
					<split pos="right">
						<feature> 6 </feature>
						<threshold> 0.0 </threshold>
						<split pos="left">
							<output> 0.9163631200790405 </output>
						</split>
						<split pos="right">
							<output> 0.255033016204834 </output>
						</split>
					</split>
				</split>
				<split pos="right">
					<output> -0.7271507382392883 </output>
				</split>
			</split>
			<split pos="right">
				<output> -2.3878679275512695 </output>
			</split>
		</split>
	</tree>
	<tree id="33" weight="0.1">
		<split>
			<feature> 10 </feature>
			<threshold> 0.7592286 </threshold>
			<split pos="left">
				<feature> 9 </feature>
				<threshold> 0.03744941 </threshold>
				<split pos="left">
					<feature> 9 </feature>
					<threshold> 0.033704467 </threshold>
					<split pos="left">
						<feature> 3 </feature>
						<threshold> 0.029773777 </threshold>
						<split pos="left">
							<feature> 5 </feature>
							<threshold> 0.20272416 </threshold>
							<split pos="left">
								<feature> 5 </feature>
								<threshold> 0.18543218 </threshold>
								<split pos="left">
									<feature> 6 </feature>
									<threshold> 0.32846028 </threshold>
									<split pos="left">
										<feature> 6 </feature>
										<threshold> 0.005695838 </threshold>
										<split pos="left">
											<output> 0.2515806555747986 </output>
										</split>
										<split pos="right">
											<output> -0.8673532605171204 </output>
										</split>
									</split>
									<split pos="right">
										<output> 0.8691369891166687 </output>
									</split>
								</split>
								<split pos="right">
									<output> 1.9689315557479858 </output>
								</split>
							</split>
							<split pos="right">
								<output> -1.3440563678741455 </output>
							</split>
						</split>
						<split pos="right">
							<feature> 6 </feature>
							<threshold> 0.005695838 </threshold>
							<split pos="left">
								<output> 0.8634923100471497 </output>
							</split>
							<split pos="right">
								<output> -0.25220787525177 </output>
							</split>
						</split>
					</split>
					<split pos="right">
						<output> 0.7628061175346375 </output>
					</split>
				</split>
				<split pos="right">
					<output> -0.6157004237174988 </output>
				</split>
			</split>
			<split pos="right">
				<output> 0.773285448551178 </output>
			</split>
		</split>
	</tree>
	<tree id="34" weight="0.1">
		<split>
			<feature> 6 </feature>
			<threshold> 0.37022984 </threshold>
			<split pos="left">
				<feature> 1 </feature>
				<threshold> 0.11111111 </threshold>
				<split pos="left">
					<feature> 10 </feature>
					<threshold> 0.0033894049 </threshold>
					<split pos="left">
						<feature> 2 </feature>
						<threshold> 0.6451613 </threshold>
						<split pos="left">
							<feature> 5 </feature>
							<threshold> 0.30306882 </threshold>
							<split pos="left">
								<output> -0.21937209367752075 </output>
							</split>
							<split pos="right">
								<output> -1.2465273141860962 </output>
							</split>
						</split>
						<split pos="right">
							<output> -2.603050708770752 </output>
						</split>
					</split>
					<split pos="right">
						<feature> 5 </feature>
						<threshold> 0.39386234 </threshold>
						<split pos="left">
							<feature> 4 </feature>
							<threshold> 0.071428575 </threshold>
							<split pos="left">
								<feature> 1 </feature>
								<threshold> 0.083333336 </threshold>
								<split pos="left">
									<feature> 10 </feature>
									<threshold> 0.0067788097 </threshold>
									<split pos="left">
										<output> 0.8169707655906677 </output>
									</split>
									<split pos="right">
										<output> -0.2741941213607788 </output>
									</split>
								</split>
								<split pos="right">
									<output> 0.6223036050796509 </output>
								</split>
							</split>
							<split pos="right">
								<output> 0.9421408176422119 </output>
							</split>
						</split>
						<split pos="right">
							<output> 0.9194831252098083 </output>
						</split>
					</split>
				</split>
				<split pos="right">
					<output> -1.159496784210205 </output>
				</split>
			</split>
			<split pos="right">
				<output> 1.001420497894287 </output>
			</split>
		</split>
	</tree>
	<tree id="35" weight="0.1">
		<split>
			<feature> 6 </feature>
			<threshold> 0.37022984 </threshold>
			<split pos="left">
				<feature> 7 </feature>
				<threshold> 0.1764706 </threshold>
				<split pos="left">
					<feature> 7 </feature>
					<threshold> 0.15044248 </threshold>
					<split pos="left">
						<feature> 2 </feature>
						<threshold> 0.6451613 </threshold>
						<split pos="left">
							<feature> 9 </feature>
							<threshold> 0.03744941 </threshold>
							<split pos="left">
								<feature> 9 </feature>
								<threshold> 0.033704467 </threshold>
								<split pos="left">
									<feature> 10 </feature>
									<threshold> 0.064398676 </threshold>
									<split pos="left">
										<feature> 3 </feature>
										<threshold> 0.15548527 </threshold>
										<split pos="left">
											<feature> 10 </feature>
											<threshold> 0.044062257 </threshold>
											<split pos="left">
												<output> -0.00955963134765625 </output>
											</split>
											<split pos="right">
												<output> 0.9170263409614563 </output>
											</split>
										</split>
										<split pos="right">
											<output> 1.1400505304336548 </output>
										</split>
									</split>
									<split pos="right">
										<output> -0.8762260675430298 </output>
									</split>
								</split>
								<split pos="right">
									<output> 0.878619909286499 </output>
								</split>
							</split>
							<split pos="right">
								<output> -0.7622016668319702 </output>
							</split>
						</split>
						<split pos="right">
							<output> -1.7937660217285156 </output>
						</split>
					</split>
					<split pos="right">
						<output> 0.9522103667259216 </output>
					</split>
				</split>
				<split pos="right">
					<output> -0.47014176845550537 </output>
				</split>
			</split>
			<split pos="right">
				<output> 0.9090723991394043 </output>
			</split>
		</split>
	</tree>
	<tree id="36" weight="0.1">
		<split>
			<feature> 6 </feature>
			<threshold> 0.37022984 </threshold>
			<split pos="left">
				<feature> 1 </feature>
				<threshold> 0.11111111 </threshold>
				<split pos="left">
					<feature> 10 </feature>
					<threshold> 0.5728106 </threshold>
					<split pos="left">
						<feature> 6 </feature>
						<threshold> 0.14809172 </threshold>
						<split pos="left">
							<feature> 3 </feature>
							<threshold> 0.029773777 </threshold>
							<split pos="left">
								<feature> 7 </feature>
								<threshold> 0.17073171 </threshold>
								<split pos="left">
									<feature> 9 </feature>
									<threshold> 0.0037449407 </threshold>
									<split pos="left">
										<output> -0.504237711429596 </output>
									</split>
									<split pos="right">
										<feature> 5 </feature>
										<threshold> 0.09624415 </threshold>
										<split pos="left">
											<output> 0.15196408331394196 </output>
										</split>
										<split pos="right">
											<output> 0.5191652178764343 </output>
										</split>
									</split>
								</split>
								<split pos="right">
									<output> -1.2503341436386108 </output>
								</split>
							</split>
							<split pos="right">
								<feature> 6 </feature>
								<threshold> 0.0 </threshold>
								<split pos="left">
									<output> 0.850346028804779 </output>
								</split>
								<split pos="right">
									<output> 0.2595069408416748 </output>
								</split>
							</split>
						</split>
						<split pos="right">
							<output> -1.4616631269454956 </output>
						</split>
					</split>
					<split pos="right">
						<output> 0.7351126670837402 </output>
					</split>
				</split>
				<split pos="right">
					<output> -1.046259880065918 </output>
				</split>
			</split>
			<split pos="right">
				<output> 0.8190233111381531 </output>
			</split>
		</split>
	</tree>
	<tree id="37" weight="0.1">
		<split>
			<feature> 1 </feature>
			<threshold> 0.11111111 </threshold>
			<split pos="left">
				<feature> 5 </feature>
				<threshold> 0.18543218 </threshold>
				<split pos="left">
					<feature> 6 </feature>
					<threshold> 0.32846028 </threshold>
					<split pos="left">
						<feature> 10 </feature>
						<threshold> 0.5728106 </threshold>
						<split pos="left">
							<feature> 6 </feature>
							<threshold> 0.14809172 </threshold>
							<split pos="left">
								<feature> 1 </feature>
								<threshold> 0.083333336 </threshold>
								<split pos="left">
									<feature> 6 </feature>
									<threshold> 0.0037972254 </threshold>
									<split pos="left">
										<feature> 5 </feature>
										<threshold> 0.055369645 </threshold>
										<split pos="left">
											<output> 0.10807102173566818 </output>
										</split>
										<split pos="right">
											<output> 0.44561678171157837 </output>
										</split>
									</split>
									<split pos="right">
										<output> -0.4716373085975647 </output>
									</split>
								</split>
								<split pos="right">
									<output> 0.5494081974029541 </output>
								</split>
							</split>
							<split pos="right">
								<output> -1.543730616569519 </output>
							</split>
						</split>
						<split pos="right">
							<output> 1.128888726234436 </output>
						</split>
					</split>
					<split pos="right">
						<output> 0.9191700220108032 </output>
					</split>
				</split>
				<split pos="right">
					<feature> 5 </feature>
					<threshold> 0.1879587 </threshold>
					<split pos="left">
						<output> 1.4121685028076172 </output>
					</split>
					<split pos="right">
						<output> -0.05880659818649292 </output>
					</split>
				</split>
			</split>
			<split pos="right">
				<output> -1.2353734970092773 </output>
			</split>
		</split>
	</tree>
	<tree id="38" weight="0.1">
		<split>
			<feature> 1 </feature>
			<threshold> 0.11111111 </threshold>
			<split pos="left">
				<feature> 5 </feature>
				<threshold> 0.18543218 </threshold>
				<split pos="left">
					<feature> 6 </feature>
					<threshold> 0.32846028 </threshold>
					<split pos="left">
						<feature> 10 </feature>
						<threshold> 0.5728106 </threshold>
						<split pos="left">
							<feature> 6 </feature>
							<threshold> 0.14809172 </threshold>
							<split pos="left">
								<feature> 1 </feature>
								<threshold> 0.083333336 </threshold>
								<split pos="left">
									<feature> 4 </feature>
									<threshold> 0.071428575 </threshold>
									<split pos="left">
										<feature> 7 </feature>
										<threshold> 0.17073171 </threshold>
										<split pos="left">
											<output> -0.07277761399745941 </output>
										</split>
										<split pos="right">
											<output> -1.0090672969818115 </output>
										</split>
									</split>
									<split pos="right">
										<output> 0.5558819770812988 </output>
									</split>
								</split>
								<split pos="right">
									<output> 0.5218112468719482 </output>
								</split>
							</split>
							<split pos="right">
								<output> -1.4131261110305786 </output>
							</split>
						</split>
						<split pos="right">
							<output> 1.12073814868927 </output>
						</split>
					</split>
					<split pos="right">
						<output> 0.7837533950805664 </output>
					</split>
				</split>
				<split pos="right">
					<feature> 5 </feature>
					<threshold> 0.1879587 </threshold>
					<split pos="left">
						<output> 1.3341127634048462 </output>
					</split>
					<split pos="right">
						<output> -0.08167064934968948 </output>
					</split>
				</split>
			</split>
			<split pos="right">
				<output> -1.1694422960281372 </output>
			</split>
		</split>
	</tree>
	<tree id="39" weight="0.1">
		<split>
			<feature> 1 </feature>
			<threshold> 0.11111111 </threshold>
			<split pos="left">
				<feature> 5 </feature>
				<threshold> 0.18543218 </threshold>
				<split pos="left">
					<feature> 6 </feature>
					<threshold> 0.32846028 </threshold>
					<split pos="left">
						<feature> 10 </feature>
						<threshold> 0.5728106 </threshold>
						<split pos="left">
							<feature> 6 </feature>
							<threshold> 0.14809172 </threshold>
							<split pos="left">
								<feature> 10 </feature>
								<threshold> 0.0033894049 </threshold>
								<split pos="left">
									<output> -0.4054294526576996 </output>
								</split>
								<split pos="right">
									<feature> 1 </feature>
									<threshold> 0.083333336 </threshold>
									<split pos="left">
										<feature> 4 </feature>
										<threshold> 0.071428575 </threshold>
										<split pos="left">
											<output> 0.09612349420785904 </output>
										</split>
										<split pos="right">
											<output> 0.8117263317108154 </output>
										</split>
									</split>
									<split pos="right">
										<output> 0.7371959686279297 </output>
									</split>
								</split>
							</split>
							<split pos="right">
								<output> -1.320428490638733 </output>
							</split>
						</split>
						<split pos="right">
							<output> 1.110291600227356 </output>
						</split>
					</split>
					<split pos="right">
						<output> 0.6904962658882141 </output>
					</split>
				</split>
				<split pos="right">
					<feature> 5 </feature>
					<threshold> 0.1879587 </threshold>
					<split pos="left">
						<output> 1.2729828357696533 </output>
					</split>
					<split pos="right">
						<output> -0.08362933248281479 </output>
					</split>
				</split>
			</split>
			<split pos="right">
				<output> -1.1084712743759155 </output>
			</split>
		</split>
	</tree>
	<tree id="40" weight="0.1">
		<split>
			<feature> 1 </feature>
			<threshold> 0.11111111 </threshold>
			<split pos="left">
				<feature> 5 </feature>
				<threshold> 0.18543218 </threshold>
				<split pos="left">
					<feature> 6 </feature>
					<threshold> 0.32846028 </threshold>
					<split pos="left">
						<feature> 10 </feature>
						<threshold> 0.5728106 </threshold>
						<split pos="left">
							<feature> 6 </feature>
							<threshold> 0.0037972254 </threshold>
							<split pos="left">
								<feature> 10 </feature>
								<threshold> 0.0033894049 </threshold>
								<split pos="left">
									<output> -0.05657428875565529 </output>
								</split>
								<split pos="right">
									<feature> 11 </feature>
									<threshold> 0.011319265 </threshold>
									<split pos="left">
										<feature> 11 </feature>
										<threshold> 0.0037730883 </threshold>
										<split pos="left">
											<output> 0.7132245898246765 </output>
										</split>
										<split pos="right">
											<output> 1.3343722820281982 </output>
										</split>
									</split>
									<split pos="right">
										<output> -0.6625845432281494 </output>
									</split>
								</split>
							</split>
							<split pos="right">
								<output> -0.3758116066455841 </output>
							</split>
						</split>
						<split pos="right">
							<output> 1.1038626432418823 </output>
						</split>
					</split>
					<split pos="right">
						<output> 0.6104105114936829 </output>
					</split>
				</split>
				<split pos="right">
					<feature> 5 </feature>
					<threshold> 0.1879587 </threshold>
					<split pos="left">
						<output> 1.225672721862793 </output>
					</split>
					<split pos="right">
						<output> -0.10467950999736786 </output>
					</split>
				</split>
			</split>
			<split pos="right">
				<output> -1.096866250038147 </output>
			</split>
		</split>
	</tree>
	<tree id="41" weight="0.1">
		<split>
			<feature> 3 </feature>
			<threshold> 0.28450492 </threshold>
			<split pos="left">
				<feature> 3 </feature>
				<threshold> 0.2778885 </threshold>
				<split pos="left">
					<feature> 10 </feature>
					<threshold> 0.5728106 </threshold>
					<split pos="left">
						<feature> 2 </feature>
						<threshold> 0.0952381 </threshold>
						<split pos="left">
							<feature> 2 </feature>
							<threshold> 0.09259259 </threshold>
							<split pos="left">
								<feature> 5 </feature>
								<threshold> 0.18543218 </threshold>
								<split pos="left">
									<feature> 6 </feature>
									<threshold> 0.31327134 </threshold>
									<split pos="left">
										<feature> 5 </feature>
										<threshold> 0.08282244 </threshold>
										<split pos="left">
											<feature> 5 </feature>
											<threshold> 0.07844445 </threshold>
											<split pos="left">
												<output> -0.027372442185878754 </output>
											</split>
											<split pos="right">
												<output> 1.0171141624450684 </output>
											</split>
										</split>
										<split pos="right">
											<output> -1.6041096448898315 </output>
										</split>
									</split>
									<split pos="right">
										<output> 0.8806511759757996 </output>
									</split>
								</split>
								<split pos="right">
									<output> 0.5507256984710693 </output>
								</split>
							</split>
							<split pos="right">
								<output> 0.9782748818397522 </output>
							</split>
						</split>
						<split pos="right">
							<output> -1.017173171043396 </output>
						</split>
					</split>
					<split pos="right">
						<output> 1.1047464609146118 </output>
					</split>
				</split>
				<split pos="right">
					<output> 1.081632375717163 </output>
				</split>
			</split>
			<split pos="right">
				<output> -1.13862144947052 </output>
			</split>
		</split>
	</tree>
	<tree id="42" weight="0.1">
		<split>
			<feature> 3 </feature>
			<threshold> 0.09924596 </threshold>
			<split pos="left">
				<feature> 3 </feature>
				<threshold> 0.056239367 </threshold>
				<split pos="left">
					<feature> 7 </feature>
					<threshold> 0.48861283 </threshold>
					<split pos="left">
						<feature> 6 </feature>
						<threshold> 0.37022984 </threshold>
						<split pos="left">
							<feature> 10 </feature>
							<threshold> 0.09829271 </threshold>
							<split pos="left">
								<feature> 10 </feature>
								<threshold> 0.084735096 </threshold>
								<split pos="left">
									<feature> 5 </feature>
									<threshold> 0.056598634 </threshold>
									<split pos="left">
										<output> -0.19065578281879425 </output>
									</split>
									<split pos="right">
										<feature> 5 </feature>
										<threshold> 0.056932542 </threshold>
										<split pos="left">
											<output> 1.0229750871658325 </output>
										</split>
										<split pos="right">
											<feature> 4 </feature>
											<threshold> 0.041666668 </threshold>
											<split pos="left">
												<output> 0.3712233901023865 </output>
											</split>
											<split pos="right">
												<output> -1.1320029497146606 </output>
											</split>
										</split>
									</split>
								</split>
								<split pos="right">
									<output> 0.6919745802879333 </output>
								</split>
							</split>
							<split pos="right">
								<output> -0.618685781955719 </output>
							</split>
						</split>
						<split pos="right">
							<output> 0.615695059299469 </output>
						</split>
					</split>
					<split pos="right">
						<output> 1.0956346988677979 </output>
					</split>
				</split>
				<split pos="right">
					<output> 0.5970187187194824 </output>
				</split>
			</split>
			<split pos="right">
				<output> -0.5397197604179382 </output>
			</split>
		</split>
	</tree>
	<tree id="43" weight="0.1">
		<split>
			<feature> 3 </feature>
			<threshold> 0.28450492 </threshold>
			<split pos="left">
				<feature> 3 </feature>
				<threshold> 0.2778885 </threshold>
				<split pos="left">
					<feature> 9 </feature>
					<threshold> 0.0936235 </threshold>
					<split pos="left">
						<feature> 2 </feature>
						<threshold> 0.0952381 </threshold>
						<split pos="left">
							<feature> 5 </feature>
							<threshold> 0.18543218 </threshold>
							<split pos="left">
								<feature> 2 </feature>
								<threshold> 0.09259259 </threshold>
								<split pos="left">
									<feature> 10 </feature>
									<threshold> 0.15252316 </threshold>
									<split pos="left">
										<feature> 9 </feature>
										<threshold> 0.07864375 </threshold>
										<split pos="left">
											<feature> 5 </feature>
											<threshold> 0.08282244 </threshold>
											<split pos="left">
												<output> 0.05844729393720627 </output>
											</split>
											<split pos="right">
												<output> -1.6190344095230103 </output>
											</split>
										</split>
										<split pos="right">
											<output> 0.6176705360412598 </output>
										</split>
									</split>
									<split pos="right">
										<output> 0.46680721640586853 </output>
									</split>
								</split>
								<split pos="right">
									<output> 0.9653308391571045 </output>
								</split>
							</split>
							<split pos="right">
								<output> 0.6039247512817383 </output>
							</split>
						</split>
						<split pos="right">
							<output> -0.9866704940795898 </output>
						</split>
					</split>
					<split pos="right">
						<output> -0.8529036045074463 </output>
					</split>
				</split>
				<split pos="right">
					<output> 1.0656185150146484 </output>
				</split>
			</split>
			<split pos="right">
				<output> -1.0517091751098633 </output>
			</split>
		</split>
	</tree>
	<tree id="44" weight="0.1">
		<split>
			<feature> 3 </feature>
			<threshold> 0.09924596 </threshold>
			<split pos="left">
				<feature> 10 </feature>
				<threshold> 0.3287725 </threshold>
				<split pos="left">
					<feature> 9 </feature>
					<threshold> 0.03744941 </threshold>
					<split pos="left">
						<feature> 9 </feature>
						<threshold> 0.033704467 </threshold>
						<split pos="left">
							<feature> 3 </feature>
							<threshold> 0.056239367 </threshold>
							<split pos="left">
								<feature> 5 </feature>
								<threshold> 0.20272416 </threshold>
								<split pos="left">
									<feature> 5 </feature>
									<threshold> 0.18543218 </threshold>
									<split pos="left">
										<feature> 6 </feature>
										<threshold> 0.005695838 </threshold>
										<split pos="left">
											<feature> 10 </feature>
											<threshold> 0.0033894049 </threshold>
											<split pos="left">
												<output> -0.03577626124024391 </output>
											</split>
											<split pos="right">
												<output> 0.8619787693023682 </output>
											</split>
										</split>
										<split pos="right">
											<output> -0.6238602995872498 </output>
										</split>
									</split>
									<split pos="right">
										<output> 1.0784207582473755 </output>
									</split>
								</split>
								<split pos="right">
									<output> -1.259537935256958 </output>
								</split>
							</split>
							<split pos="right">
								<output> 0.6931093335151672 </output>
							</split>
						</split>
						<split pos="right">
							<output> 0.9212676286697388 </output>
						</split>
					</split>
					<split pos="right">
						<output> -0.6405982375144958 </output>
					</split>
				</split>
				<split pos="right">
					<output> 0.8036080002784729 </output>
				</split>
			</split>
			<split pos="right">
				<output> -0.5192144513130188 </output>
			</split>
		</split>
	</tree>
	<tree id="45" weight="0.1">
		<split>
			<feature> 3 </feature>
			<threshold> 0.09924596 </threshold>
			<split pos="left">
				<feature> 3 </feature>
				<threshold> 0.056239367 </threshold>
				<split pos="left">
					<feature> 7 </feature>
					<threshold> 0.48861283 </threshold>
					<split pos="left">
						<feature> 6 </feature>
						<threshold> 0.0 </threshold>
						<split pos="left">
							<output> -0.49667128920555115 </output>
						</split>
						<split pos="right">
							<feature> 3 </feature>
							<threshold> 0.04631477 </threshold>
							<split pos="left">
								<feature> 10 </feature>
								<threshold> 0.013557619 </threshold>
								<split pos="left">
									<feature> 5 </feature>
									<threshold> 0.056598634 </threshold>
									<split pos="left">
										<output> -0.5597285032272339 </output>
									</split>
									<split pos="right">
										<feature> 5 </feature>
										<threshold> 0.056932542 </threshold>
										<split pos="left">
											<output> 1.018746256828308 </output>
										</split>
										<split pos="right">
											<feature> 4 </feature>
											<threshold> 0.013513514 </threshold>
											<split pos="left">
												<output> 0.7337909936904907 </output>
											</split>
											<split pos="right">
												<output> -0.15377908945083618 </output>
											</split>
										</split>
									</split>
								</split>
								<split pos="right">
									<output> 0.3550999164581299 </output>
								</split>
							</split>
							<split pos="right">
								<output> -1.1227357387542725 </output>
							</split>
						</split>
					</split>
					<split pos="right">
						<output> 1.0789216756820679 </output>
					</split>
				</split>
				<split pos="right">
					<output> 0.5452551245689392 </output>
				</split>
			</split>
			<split pos="right">
				<output> -0.48597902059555054 </output>
			</split>
		</split>
	</tree>
	<tree id="46" weight="0.1">
		<split>
			<feature> 9 </feature>
			<threshold> 0.03744941 </threshold>
			<split pos="left">
				<feature> 3 </feature>
				<threshold> 0.28450492 </threshold>
				<split pos="left">
					<feature> 3 </feature>
					<threshold> 0.2778885 </threshold>
					<split pos="left">
						<feature> 5 </feature>
						<threshold> 0.18543218 </threshold>
						<split pos="left">
							<feature> 6 </feature>
							<threshold> 0.0037972254 </threshold>
							<split pos="left">
								<feature> 4 </feature>
								<threshold> 0.071428575 </threshold>
								<split pos="left">
									<feature> 3 </feature>
									<threshold> 0.02646558 </threshold>
									<split pos="left">
										<feature> 5 </feature>
										<threshold> 0.055369645 </threshold>
										<split pos="left">
											<output> -0.05273493006825447 </output>
										</split>
										<split pos="right">
											<output> 0.4872533082962036 </output>
										</split>
									</split>
									<split pos="right">
										<output> 0.7481673955917358 </output>
									</split>
								</split>
								<split pos="right">
									<output> 5.146047592163086 </output>
								</split>
							</split>
							<split pos="right">
								<output> -0.35519370436668396 </output>
							</split>
						</split>
						<split pos="right">
							<feature> 5 </feature>
							<threshold> 0.1879587 </threshold>
							<split pos="left">
								<output> 1.1228200197219849 </output>
							</split>
							<split pos="right">
								<output> -0.06358231604099274 </output>
							</split>
						</split>
					</split>
					<split pos="right">
						<output> 1.0597710609436035 </output>
					</split>
				</split>
				<split pos="right">
					<output> -1.188669204711914 </output>
				</split>
			</split>
			<split pos="right">
				<output> -0.48414093255996704 </output>
			</split>
		</split>
	</tree>
	<tree id="47" weight="0.1">
		<split>
			<feature> 1 </feature>
			<threshold> 0.11111111 </threshold>
			<split pos="left">
				<feature> 10 </feature>
				<threshold> 0.0033894049 </threshold>
				<split pos="left">
					<feature> 5 </feature>
					<threshold> 0.18543218 </threshold>
					<split pos="left">
						<output> -0.3209497332572937 </output>
					</split>
					<split pos="right">
						<output> 0.3268161416053772 </output>
					</split>
				</split>
				<split pos="right">
					<feature> 6 </feature>
					<threshold> 0.28289348 </threshold>
					<split pos="left">
						<feature> 4 </feature>
						<threshold> 0.071428575 </threshold>
						<split pos="left">
							<feature> 5 </feature>
							<threshold> 0.39386234 </threshold>
							<split pos="left">
								<feature> 7 </feature>
								<threshold> 0.17073171 </threshold>
								<split pos="left">
									<feature> 1 </feature>
									<threshold> 0.083333336 </threshold>
									<split pos="left">
										<feature> 6 </feature>
										<threshold> 0.007594451 </threshold>
										<split pos="left">
											<output> 0.4411059319972992 </output>
										</split>
										<split pos="right">
											<output> -0.38482385873794556 </output>
										</split>
									</split>
									<split pos="right">
										<output> 0.6555173397064209 </output>
									</split>
								</split>
								<split pos="right">
									<output> -0.7190152406692505 </output>
								</split>
							</split>
							<split pos="right">
								<output> 0.8523133993148804 </output>
							</split>
						</split>
						<split pos="right">
							<output> 0.6443458795547485 </output>
						</split>
					</split>
					<split pos="right">
						<output> 0.6435530781745911 </output>
					</split>
				</split>
			</split>
			<split pos="right">
				<output> -1.0290766954421997 </output>
			</split>
		</split>
	</tree>
	<tree id="48" weight="0.1">
		<split>
			<feature> 9 </feature>
			<threshold> 0.03744941 </threshold>
			<split pos="left">
				<feature> 10 </feature>
				<threshold> 0.1999748 </threshold>
				<split pos="left">
					<feature> 10 </feature>
					<threshold> 0.18302779 </threshold>
					<split pos="left">
						<feature> 10 </feature>
						<threshold> 0.15252316 </threshold>
						<split pos="left">
							<feature> 9 </feature>
							<threshold> 0.033704467 </threshold>
							<split pos="left">
								<feature> 10 </feature>
								<threshold> 0.064398676 </threshold>
								<split pos="left">
									<feature> 3 </feature>
									<threshold> 0.15548527 </threshold>
									<split pos="left">
										<feature> 3 </feature>
										<threshold> 0.13894431 </threshold>
										<split pos="left">
											<feature> 10 </feature>
											<threshold> 0.044062257 </threshold>
											<split pos="left">
												<output> 0.07608291506767273 </output>
											</split>
											<split pos="right">
												<output> 0.8573822379112244 </output>
											</split>
										</split>
										<split pos="right">
											<output> -2.9311330318450928 </output>
										</split>
									</split>
									<split pos="right">
										<output> 1.0276904106140137 </output>
									</split>
								</split>
								<split pos="right">
									<output> -0.988362193107605 </output>
								</split>
							</split>
							<split pos="right">
								<output> 0.8503929376602173 </output>
							</split>
						</split>
						<split pos="right">
							<output> 0.4852618873119354 </output>
						</split>
					</split>
					<split pos="right">
						<output> 1.0944360494613647 </output>
					</split>
				</split>
				<split pos="right">
					<output> -0.9099918007850647 </output>
				</split>
			</split>
			<split pos="right">
				<output> -0.4301221966743469 </output>
			</split>
		</split>
	</tree>
	<tree id="49" weight="0.1">
		<split>
			<feature> 6 </feature>
			<threshold> 0.0 </threshold>
			<split pos="left">
				<feature> 4 </feature>
				<threshold> 0.055555556 </threshold>
				<split pos="left">
					<output> 0.023692652583122253 </output>
				</split>
				<split pos="right">
					<output> -2.804823398590088 </output>
				</split>
			</split>
			<split pos="right">
				<feature> 6 </feature>
				<threshold> 0.0037972254 </threshold>
				<split pos="left">
					<feature> 4 </feature>
					<threshold> 0.055555556 </threshold>
					<split pos="left">
						<feature> 5 </feature>
						<threshold> 0.055369645 </threshold>
						<split pos="left">
							<output> 0.15316003561019897 </output>
						</split>
						<split pos="right">
							<output> 0.46487537026405334 </output>
						</split>
					</split>
					<split pos="right">
						<output> 2.49322772026062 </output>
					</split>
				</split>
				<split pos="right">
					<feature> 5 </feature>
					<threshold> 0.18543218 </threshold>
					<split pos="left">
						<feature> 10 </feature>
						<threshold> 0.7592286 </threshold>
						<split pos="left">
							<feature> 3 </feature>
							<threshold> 0.10586236 </threshold>
							<split pos="left">
								<output> -0.24140220880508423 </output>
							</split>
							<split pos="right">
								<output> -0.6419667601585388 </output>
							</split>
						</split>
						<split pos="right">
							<output> 1.0585615634918213 </output>
						</split>
					</split>
					<split pos="right">
						<feature> 5 </feature>
						<threshold> 0.1879587 </threshold>
						<split pos="left">
							<output> 1.0892729759216309 </output>
						</split>
						<split pos="right">
							<output> -0.15456072986125946 </output>
						</split>
					</split>
				</split>
			</split>
		</split>
	</tree>
	<tree id="50" weight="0.1">
		<split>
			<feature> 2 </feature>
			<threshold> 0.0952381 </threshold>
			<split pos="left">
				<feature> 2 </feature>
				<threshold> 0.09259259 </threshold>
				<split pos="left">
					<feature> 1 </feature>
					<threshold> 0.07692308 </threshold>
					<split pos="left">
						<feature> 5 </feature>
						<threshold> 0.18543218 </threshold>
						<split pos="left">
							<feature> 10 </feature>
							<threshold> 0.29826772 </threshold>
							<split pos="left">
								<feature> 6 </feature>
								<threshold> 0.17846958 </threshold>
								<split pos="left">
									<feature> 7 </feature>
									<threshold> 0.06535948 </threshold>
									<split pos="left">
										<feature> 7 </feature>
										<threshold> 0.062068965 </threshold>
										<split pos="left">
											<feature> 6 </feature>
											<threshold> 0.005695838 </threshold>
											<split pos="left">
												<output> 0.4236760139465332 </output>
											</split>
											<split pos="right">
												<output> -0.6139193177223206 </output>
											</split>
										</split>
										<split pos="right">
											<output> 0.6015419363975525 </output>
										</split>
									</split>
									<split pos="right">
										<output> -0.7832003831863403 </output>
									</split>
								</split>
								<split pos="right">
									<output> 0.8594862818717957 </output>
								</split>
							</split>
							<split pos="right">
								<output> 0.8693195581436157 </output>
							</split>
						</split>
						<split pos="right">
							<output> 0.6114723682403564 </output>
						</split>
					</split>
					<split pos="right">
						<output> -0.5031816959381104 </output>
					</split>
				</split>
				<split pos="right">
					<output> 0.9626657366752625 </output>
				</split>
			</split>
			<split pos="right">
				<output> -0.591225802898407 </output>
			</split>
		</split>
	</tree>
	<tree id="51" weight="0.1">
		<split>
			<feature> 2 </feature>
			<threshold> 0.0952381 </threshold>
			<split pos="left">
				<feature> 2 </feature>
				<threshold> 0.09259259 </threshold>
				<split pos="left">
					<feature> 1 </feature>
					<threshold> 0.07692308 </threshold>
					<split pos="left">
						<feature> 5 </feature>
						<threshold> 0.18543218 </threshold>
						<split pos="left">
							<feature> 4 </feature>
							<threshold> 0.041666668 </threshold>
							<split pos="left">
								<feature> 3 </feature>
								<threshold> 0.033081975 </threshold>
								<split pos="left">
									<feature> 3 </feature>
									<threshold> 0.029773777 </threshold>
									<split pos="left">
										<output> -0.1481817215681076 </output>
									</split>
									<split pos="right">
										<output> 0.8291229605674744 </output>
									</split>
								</split>
								<split pos="right">
									<output> -0.9587189555168152 </output>
								</split>
							</split>
							<split pos="right">
								<feature> 10 </feature>
								<threshold> 0.17624898 </threshold>
								<split pos="left">
									<feature> 6 </feature>
									<threshold> 0.007594451 </threshold>
									<split pos="left">
										<output> 1.0420504808425903 </output>
									</split>
									<split pos="right">
										<output> -0.2983499765396118 </output>
									</split>
								</split>
								<split pos="right">
									<output> 0.7245789170265198 </output>
								</split>
							</split>
						</split>
						<split pos="right">
							<output> 0.5690540075302124 </output>
						</split>
					</split>
					<split pos="right">
						<output> -0.47154873609542847 </output>
					</split>
				</split>
				<split pos="right">
					<output> 0.9461870193481445 </output>
				</split>
			</split>
			<split pos="right">
				<output> -0.5510289072990417 </output>
			</split>
		</split>
	</tree>
	<tree id="52" weight="0.1">
		<split>
			<feature> 6 </feature>
			<threshold> 0.37402707 </threshold>
			<split pos="left">
				<feature> 6 </feature>
				<threshold> 0.37022984 </threshold>
				<split pos="left">
					<feature> 5 </feature>
					<threshold> 0.40028852 </threshold>
					<split pos="left">
						<feature> 5 </feature>
						<threshold> 0.39386234 </threshold>
						<split pos="left">
							<feature> 5 </feature>
							<threshold> 0.1879587 </threshold>
							<split pos="left">
								<feature> 5 </feature>
								<threshold> 0.18543218 </threshold>
								<split pos="left">
									<feature> 10 </feature>
									<threshold> 0.7592286 </threshold>
									<split pos="left">
										<feature> 6 </feature>
										<threshold> 0.0037972254 </threshold>
										<split pos="left">
											<feature> 5 </feature>
											<threshold> 0.055369645 </threshold>
											<split pos="left">
												<output> 0.18614986538887024 </output>
											</split>
											<split pos="right">
												<output> 0.3536980152130127 </output>
											</split>
										</split>
										<split pos="right">
											<output> -0.26909440755844116 </output>
										</split>
									</split>
									<split pos="right">
										<output> 1.0540112257003784 </output>
									</split>
								</split>
								<split pos="right">
									<output> 1.0620352029800415 </output>
								</split>
							</split>
							<split pos="right">
								<output> -0.6062783598899841 </output>
							</split>
						</split>
						<split pos="right">
							<output> 1.0176832675933838 </output>
						</split>
					</split>
					<split pos="right">
						<output> -0.7495613098144531 </output>
					</split>
				</split>
				<split pos="right">
					<output> 1.060284972190857 </output>
				</split>
			</split>
			<split pos="right">
				<output> -1.3236066102981567 </output>
			</split>
		</split>
	</tree>
	<tree id="53" weight="0.1">
		<split>
			<feature> 10 </feature>
			<threshold> 0.0033894049 </threshold>
			<split pos="left">
				<feature> 5 </feature>
				<threshold> 0.5 </threshold>
				<split pos="left">
					<feature> 6 </feature>
					<threshold> 0.0 </threshold>
					<split pos="left">
						<output> -0.7494499087333679 </output>
					</split>
					<split pos="right">
						<feature> 5 </feature>
						<threshold> 0.18543218 </threshold>
						<split pos="left">
							<feature> 5 </feature>
							<threshold> 0.08102757 </threshold>
							<split pos="left">
								<feature> 5 </feature>
								<threshold> 0.07844445 </threshold>
								<split pos="left">
									<output> -0.3606542646884918 </output>
								</split>
								<split pos="right">
									<output> 1.0265824794769287 </output>
								</split>
							</split>
							<split pos="right">
								<output> -0.7548851370811462 </output>
							</split>
						</split>
						<split pos="right">
							<output> 0.3768611252307892 </output>
						</split>
					</split>
				</split>
				<split pos="right">
					<output> -1.4922513961791992 </output>
				</split>
			</split>
			<split pos="right">
				<feature> 6 </feature>
				<threshold> 0.0037972254 </threshold>
				<split pos="left">
					<feature> 11 </feature>
					<threshold> 0.011319265 </threshold>
					<split pos="left">
						<feature> 11 </feature>
						<threshold> 0.0037730883 </threshold>
						<split pos="left">
							<output> 0.45328500866889954 </output>
						</split>
						<split pos="right">
							<output> 1.0568366050720215 </output>
						</split>
					</split>
					<split pos="right">
						<output> -0.7018325328826904 </output>
					</split>
				</split>
				<split pos="right">
					<output> -0.013817534781992435 </output>
				</split>
			</split>
		</split>
	</tree>
