## LambdaMART
## No. of trees = 1000
## No. of leaves = 10
## No. of threshold candidates = 256
## Learning rate = 0.1
## Stop early = 100

<ensemble>
	<tree id="1" weight="0.1">
		<split>
			<feature> 5 </feature>
			<threshold> 0.06810242 </threshold>
			<split pos="left">
				<feature> 10 </feature>
				<threshold> 0.762618 </threshold>
				<split pos="left">
					<feature> 3 </feature>
					<threshold> 0.029773777 </threshold>
					<split pos="left">
						<feature> 6 </feature>
						<threshold> 0.091133356 </threshold>
						<split pos="left">
							<feature> 4 </feature>
							<threshold> 0.041666668 </threshold>
							<split pos="left">
								<output> -1.3883718252182007 </output>
							</split>
							<split pos="right">
								<output> -0.2303801029920578 </output>
							</split>
						</split>
						<split pos="right">
							<output> 0.7364470958709717 </output>
						</split>
					</split>
					<split pos="right">
						<feature> 3 </feature>
						<threshold> 0.033081975 </threshold>
						<split pos="left">
							<output> 1.8284497261047363 </output>
						</split>
						<split pos="right">
							<output> -0.2213318645954132 </output>
						</split>
					</split>
				</split>
				<split pos="right">
					<output> 2.0 </output>
				</split>
			</split>
			<split pos="right">
				<feature> 5 </feature>
				<threshold> 0.06912511 </threshold>
				<split pos="left">
					<output> 2.0 </output>
				</split>
				<split pos="right">
					<feature> 10 </feature>
					<threshold> 0.054230466 </threshold>
					<split pos="left">
						<output> 0.30588680505752563 </output>
					</split>
					<split pos="right">
						<feature> 5 </feature>
						<threshold> 0.39386234 </threshold>
						<split pos="left">
							<output> -1.9984612464904785 </output>
						</split>
						<split pos="right">
							<output> 1.9637285470962524 </output>
						</split>
					</split>
				</split>
			</split>
		</split>
	</tree>
	<tree id="2" weight="0.1">
		<split>
			<feature> 5 </feature>
			<threshold> 0.06810242 </threshold>
			<split pos="left">
				<feature> 7 </feature>
				<threshold> 0.7609195 </threshold>
				<split pos="left">
					<feature> 3 </feature>
					<threshold> 0.029773777 </threshold>
					<split pos="left">
						<output> -1.2212039232254028 </output>
					</split>
					<split pos="right">
						<feature> 3 </feature>
						<threshold> 0.033081975 </threshold>
						<split pos="left">
							<feature> 6 </feature>
							<threshold> 0.0018986127 </threshold>
							<split pos="left">
								<output> 1.746954321861267 </output>
							</split>
							<split pos="right">
								<output> -1.3256077766418457 </output>
							</split>
						</split>
						<split pos="right">
							<output> -0.6543868184089661 </output>
						</split>
					</split>
				</split>
				<split pos="right">
					<output> 1.7905982732772827 </output>
				</split>
			</split>
			<split pos="right">
				<feature> 5 </feature>
				<threshold> 0.06912511 </threshold>
				<split pos="left">
					<output> 1.7199676036834717 </output>
				</split>
				<split pos="right">
					<feature> 10 </feature>
					<threshold> 0.054230466 </threshold>
					<split pos="left">
						<output> -0.0713232010602951 </output>
					</split>
					<split pos="right">
						<feature> 5 </feature>
						<threshold> 0.39386234 </threshold>
						<split pos="left">
							<output> -1.7433748245239258 </output>
						</split>
						<split pos="right">
							<feature> 6 </feature>
							<threshold> 0.018986126 </threshold>
							<split pos="left">
								<output> 1.613498568534851 </output>
							</split>
							<split pos="right">
								<output> 1.7319144010543823 </output>
							</split>
						</split>
					</split>
				</split>
			</split>
		</split>
	</tree>
	<tree id="3" weight="0.1">
		<split>
			<feature> 5 </feature>
			<threshold> 0.06810242 </threshold>
			<split pos="left">
				<feature> 3 </feature>
				<threshold> 0.8270479 </threshold>
				<split pos="left">
					<feature> 3 </feature>
					<threshold> 0.029773777 </threshold>
					<split pos="left">
						<output> -1.3436872959136963 </output>
					</split>
					<split pos="right">
						<feature> 3 </feature>
						<threshold> 0.033081975 </threshold>
						<split pos="left">
							<output> 1.496785283088684 </output>
						</split>
						<split pos="right">
							<output> -0.3414979875087738 </output>
						</split>
					</split>
				</split>
				<split pos="right">
					<output> 1.5920789241790771 </output>
				</split>
			</split>
			<split pos="right">
				<feature> 5 </feature>
				<threshold> 0.06912511 </threshold>
				<split pos="left">
					<output> 1.5399292707443237 </output>
				</split>
				<split pos="right">
					<feature> 10 </feature>
					<threshold> 0.054230466 </threshold>
					<split pos="left">
						<feature> 6 </feature>
						<threshold> 0.0018986127 </threshold>
						<split pos="left">
							<feature> 5 </feature>
							<threshold> 0.078907244 </threshold>
							<split pos="left">
								<output> 1.735568881034851 </output>
							</split>
							<split pos="right">
								<output> 0.3186766803264618 </output>
							</split>
						</split>
						<split pos="right">
							<output> -0.3247571289539337 </output>
						</split>
					</split>
					<split pos="right">
						<feature> 5 </feature>
						<threshold> 0.39386234 </threshold>
						<split pos="left">
							<output> -1.628694772720337 </output>
						</split>
						<split pos="right">
							<output> 1.5259076356887817 </output>
						</split>
					</split>
				</split>
			</split>
		</split>
	</tree>
	<tree id="4" weight="0.1">
		<split>
			<feature> 5 </feature>
			<threshold> 0.06810242 </threshold>
			<split pos="left">
				<feature> 3 </feature>
				<threshold> 0.029773777 </threshold>
				<split pos="left">
					<output> -1.2518831491470337 </output>
				</split>
				<split pos="right">
					<feature> 3 </feature>
					<threshold> 0.033081975 </threshold>
					<split pos="left">
						<feature> 6 </feature>
						<threshold> 0.0018986127 </threshold>
						<split pos="left">
							<output> 1.4377447366714478 </output>
						</split>
						<split pos="right">
							<output> -1.1557689905166626 </output>
						</split>
					</split>
					<split pos="right">
						<output> 0.12378101050853729 </output>
					</split>
				</split>
			</split>
			<split pos="right">
				<feature> 5 </feature>
				<threshold> 0.06912511 </threshold>
				<split pos="left">
					<output> 1.4102293252944946 </output>
				</split>
				<split pos="right">
					<feature> 10 </feature>
					<threshold> 0.054230466 </threshold>
					<split pos="left">
						<feature> 5 </feature>
						<threshold> 0.08102757 </threshold>
						<split pos="left">
							<feature> 1 </feature>
							<threshold> 0.0625 </threshold>
							<split pos="left">
								<output> 0.4897109270095825 </output>
							</split>
							<split pos="right">
								<output> 1.5824050903320312 </output>
							</split>
						</split>
						<split pos="right">
							<output> -0.28141093254089355 </output>
						</split>
					</split>
					<split pos="right">
						<feature> 5 </feature>
						<threshold> 0.39386234 </threshold>
						<split pos="left">
							<output> -1.5581973791122437 </output>
						</split>
						<split pos="right">
							<output> 1.37660813331604 </output>
						</split>
					</split>
				</split>
			</split>
		</split>
	</tree>
	<tree id="5" weight="0.1">
		<split>
			<feature> 5 </feature>
			<threshold> 0.06810242 </threshold>
			<split pos="left">
				<feature> 7 </feature>
				<threshold> 0.7609195 </threshold>
				<split pos="left">
					<feature> 3 </feature>
					<threshold> 0.029773777 </threshold>
					<split pos="left">
						<output> -1.1380314826965332 </output>
					</split>
					<split pos="right">
						<feature> 3 </feature>
						<threshold> 0.033081975 </threshold>
						<split pos="left">
							<output> 1.2717832326889038 </output>
						</split>
						<split pos="right">
							<output> -0.11416758596897125 </output>
						</split>
					</split>
				</split>
				<split pos="right">
					<output> 1.4036697149276733 </output>
				</split>
			</split>
			<split pos="right">
				<feature> 5 </feature>
				<threshold> 0.06912511 </threshold>
				<split pos="left">
					<output> 1.3198115825653076 </output>
				</split>
				<split pos="right">
					<feature> 10 </feature>
					<threshold> 0.054230466 </threshold>
					<split pos="left">
						<feature> 5 </feature>
						<threshold> 0.08102757 </threshold>
						<split pos="left">
							<feature> 1 </feature>
							<threshold> 0.0625 </threshold>
							<split pos="left">
								<output> 0.3972075879573822 </output>
							</split>
							<split pos="right">
								<output> 1.451433777809143 </output>
							</split>
						</split>
						<split pos="right">
							<output> -0.31231245398521423 </output>
						</split>
					</split>
					<split pos="right">
						<feature> 5 </feature>
						<threshold> 0.39386234 </threshold>
						<split pos="left">
							<output> -1.4839820861816406 </output>
						</split>
						<split pos="right">
							<output> 1.2809094190597534 </output>
						</split>
					</split>
				</split>
			</split>
		</split>
	</tree>
	<tree id="6" weight="0.1">
		<split>
			<feature> 5 </feature>
			<threshold> 0.06810242 </threshold>
			<split pos="left">
				<feature> 3 </feature>
				<threshold> 0.8270479 </threshold>
				<split pos="left">
					<feature> 3 </feature>
					<threshold> 0.029773777 </threshold>
					<split pos="left">
						<output> -1.0471832752227783 </output>
					</split>
					<split pos="right">
						<feature> 3 </feature>
						<threshold> 0.033081975 </threshold>
						<split pos="left">
							<output> 1.200676441192627 </output>
						</split>
						<split pos="right">
							<output> -0.07705117762088776 </output>
						</split>
					</split>
				</split>
				<split pos="right">
					<output> 1.3218897581100464 </output>
				</split>
			</split>
			<split pos="right">
				<feature> 5 </feature>
				<threshold> 0.06912511 </threshold>
				<split pos="left">
					<output> 1.2553268671035767 </output>
				</split>
				<split pos="right">
					<feature> 10 </feature>
					<threshold> 0.05761987 </threshold>
					<split pos="left">
						<feature> 5 </feature>
						<threshold> 0.08102757 </threshold>
						<split pos="left">
							<feature> 1 </feature>
							<threshold> 0.0625 </threshold>
							<split pos="left">
								<output> 0.3197448253631592 </output>
							</split>
							<split pos="right">
								<output> 1.3583781719207764 </output>
							</split>
						</split>
						<split pos="right">
							<output> -0.3365311622619629 </output>
						</split>
					</split>
					<split pos="right">
						<feature> 10 </feature>
						<threshold> 0.064398676 </threshold>
						<split pos="left">
							<output> 1.284010648727417 </output>
						</split>
						<split pos="right">
							<output> 0.9178956747055054 </output>
						</split>
					</split>
				</split>
			</split>
		</split>
	</tree>
	<tree id="7" weight="0.1">
		<split>
			<feature> 5 </feature>
			<threshold> 0.06810242 </threshold>
			<split pos="left">
				<feature> 7 </feature>
				<threshold> 0.7609195 </threshold>
				<split pos="left">
					<feature> 3 </feature>
					<threshold> 0.029773777 </threshold>
					<split pos="left">
						<output> -0.9701008796691895 </output>
					</split>
					<split pos="right">
						<feature> 3 </feature>
						<threshold> 0.033081975 </threshold>
						<split pos="left">
							<output> 1.1512463092803955 </output>
						</split>
						<split pos="right">
							<output> -0.04400796443223953 </output>
						</split>
					</split>
				</split>
				<split pos="right">
					<output> 1.262013554573059 </output>
				</split>
			</split>
			<split pos="right">
				<feature> 5 </feature>
				<threshold> 0.06912511 </threshold>
				<split pos="left">
					<output> 1.207916259765625 </output>
				</split>
				<split pos="right">
					<feature> 4 </feature>
					<threshold> 0.041666668 </threshold>
					<split pos="left">
						<feature> 5 </feature>
						<threshold> 0.35560724 </threshold>
						<split pos="left">
							<feature> 1 </feature>
							<threshold> 0.0625 </threshold>
							<split pos="left">
								<output> 0.29117655754089355 </output>
							</split>
							<split pos="right">
								<feature> 5 </feature>
								<threshold> 0.078907244 </threshold>
								<split pos="left">
									<output> 1.2907947301864624 </output>
								</split>
								<split pos="right">
									<output> -1.4307266473770142 </output>
								</split>
							</split>
						</split>
						<split pos="right">
							<output> 1.229179859161377 </output>
						</split>
					</split>
					<split pos="right">
						<output> -1.3001121282577515 </output>
					</split>
				</split>
			</split>
		</split>
	</tree>
	<tree id="8" weight="0.1">
		<split>
			<feature> 5 </feature>
			<threshold> 0.06810242 </threshold>
			<split pos="left">
				<feature> 7 </feature>
				<threshold> 0.03846154 </threshold>
				<split pos="left">
					<output> -0.9541729092597961 </output>
				</split>
				<split pos="right">
					<feature> 7 </feature>
					<threshold> 0.039215688 </threshold>
					<split pos="left">
						<output> 1.1950372457504272 </output>
					</split>
					<split pos="right">
						<output> 0.7336258888244629 </output>
					</split>
				</split>
			</split>
			<split pos="right">
				<feature> 5 </feature>
				<threshold> 0.06912511 </threshold>
				<split pos="left">
					<output> 1.1726117134094238 </output>
				</split>
				<split pos="right">
					<feature> 4 </feature>
					<threshold> 0.041666668 </threshold>
					<split pos="left">
						<feature> 5 </feature>
						<threshold> 0.35560724 </threshold>
						<split pos="left">
							<feature> 7 </feature>
							<threshold> 0.0 </threshold>
							<split pos="left">
								<feature> 4 </feature>
								<threshold> 0.037037037 </threshold>
								<split pos="left">
									<feature> 2 </feature>
									<threshold> 0.016666668 </threshold>
									<split pos="left">
										<output> 0.04731885716319084 </output>
									</split>
									<split pos="right">
										<output> 0.9848225712776184 </output>
									</split>
								</split>
								<split pos="right">
									<output> 1.5143789052963257 </output>
								</split>
							</split>
							<split pos="right">
								<output> -1.6870083808898926 </output>
							</split>
						</split>
						<split pos="right">
							<output> 1.1932529211044312 </output>
						</split>
					</split>
					<split pos="right">
						<output> -1.0453664064407349 </output>
					</split>
				</split>
			</split>
		</split>
	</tree>
	<tree id="9" weight="0.1">
		<split>
			<feature> 5 </feature>
			<threshold> 0.06810242 </threshold>
			<split pos="left">
				<feature> 7 </feature>
				<threshold> 0.03846154 </threshold>
				<split pos="left">
					<output> -0.9243213534355164 </output>
				</split>
				<split pos="right">
					<feature> 7 </feature>
					<threshold> 0.039215688 </threshold>
					<split pos="left">
						<output> 1.1641827821731567 </output>
					</split>
					<split pos="right">
						<feature> 4 </feature>
						<threshold> 0.041666668 </threshold>
						<split pos="left">
							<output> -0.6024637818336487 </output>
						</split>
						<split pos="right">
							<output> 1.2362042665481567 </output>
						</split>
					</split>
				</split>
			</split>
			<split pos="right">
				<feature> 5 </feature>
				<threshold> 0.06912511 </threshold>
				<split pos="left">
					<output> 1.1428223848342896 </output>
				</split>
				<split pos="right">
					<feature> 4 </feature>
					<threshold> 0.041666668 </threshold>
					<split pos="left">
						<feature> 5 </feature>
						<threshold> 0.35560724 </threshold>
						<split pos="left">
							<feature> 1 </feature>
							<threshold> 0.0625 </threshold>
							<split pos="left">
								<output> 0.3169029951095581 </output>
							</split>
							<split pos="right">
								<feature> 5 </feature>
								<threshold> 0.078907244 </threshold>
								<split pos="left">
									<output> 1.2040894031524658 </output>
								</split>
								<split pos="right">
									<output> -1.322738528251648 </output>
								</split>
							</split>
						</split>
						<split pos="right">
							<output> 1.166759967803955 </output>
						</split>
					</split>
					<split pos="right">
						<output> -0.9203211069107056 </output>
					</split>
				</split>
			</split>
		</split>
	</tree>
	<tree id="10" weight="0.1">
		<split>
			<feature> 5 </feature>
			<threshold> 0.06810242 </threshold>
			<split pos="left">
				<feature> 10 </feature>
				<threshold> 0.7592286 </threshold>
				<split pos="left">
					<feature> 3 </feature>
					<threshold> 0.029773777 </threshold>
					<split pos="left">
						<output> -1.010651707649231 </output>
					</split>
					<split pos="right">
						<feature> 3 </feature>
						<threshold> 0.033081975 </threshold>
						<split pos="left">
							<output> 1.0646827220916748 </output>
						</split>
						<split pos="right">
							<output> 0.24289408326148987 </output>
						</split>
					</split>
				</split>
				<split pos="right">
					<output> 1.4589104652404785 </output>
				</split>
			</split>
			<split pos="right">
				<feature> 5 </feature>
				<threshold> 0.06912511 </threshold>
				<split pos="left">
					<output> 1.1189370155334473 </output>
				</split>
				<split pos="right">
					<feature> 6 </feature>
					<threshold> 0.032276414 </threshold>
					<split pos="left">
						<feature> 6 </feature>
						<threshold> 0.02847919 </threshold>
						<split pos="left">
							<feature> 3 </feature>
							<threshold> 0.03969837 </threshold>
							<split pos="left">
								<feature> 5 </feature>
								<threshold> 0.08102757 </threshold>
								<split pos="left">
									<output> 0.915751039981842 </output>
								</split>
								<split pos="right">
									<output> -0.012686486355960369 </output>
								</split>
							</split>
							<split pos="right">
								<output> 1.22527277469635 </output>
							</split>
						</split>
						<split pos="right">
							<output> 1.4263710975646973 </output>
						</split>
					</split>
					<split pos="right">
						<output> -1.549210786819458 </output>
					</split>
				</split>
			</split>
		</split>
	</tree>
	<tree id="11" weight="0.1">
		<split>
			<feature> 5 </feature>
			<threshold> 0.06810242 </threshold>
			<split pos="left">
				<feature> 10 </feature>
				<threshold> 0.7592286 </threshold>
				<split pos="left">
					<feature> 7 </feature>
					<threshold> 0.03448276 </threshold>
					<split pos="left">
						<output> -0.8800497055053711 </output>
					</split>
					<split pos="right">
						<feature> 7 </feature>
						<threshold> 0.039215688 </threshold>
						<split pos="left">
							<output> 1.1091265678405762 </output>
						</split>
						<split pos="right">
							<output> 0.5505400896072388 </output>
						</split>
					</split>
				</split>
				<split pos="right">
					<output> 1.3735542297363281 </output>
				</split>
			</split>
			<split pos="right">
				<feature> 5 </feature>
				<threshold> 0.06912511 </threshold>
				<split pos="left">
					<output> 1.101322054862976 </output>
				</split>
				<split pos="right">
					<feature> 4 </feature>
					<threshold> 0.041666668 </threshold>
					<split pos="left">
						<feature> 5 </feature>
						<threshold> 0.35560724 </threshold>
						<split pos="left">
							<feature> 5 </feature>
							<threshold> 0.1879587 </threshold>
							<split pos="left">
								<feature> 5 </feature>
								<threshold> 0.1779992 </threshold>
								<split pos="left">
									<output> 0.48269322514533997 </output>
								</split>
								<split pos="right">
									<output> 1.3603471517562866 </output>
								</split>
							</split>
							<split pos="right">
								<output> -1.9318779706954956 </output>
							</split>
						</split>
						<split pos="right">
							<output> 1.1285697221755981 </output>
						</split>
					</split>
					<split pos="right">
						<output> -0.7561112642288208 </output>
					</split>
				</split>
			</split>
		</split>
	</tree>
	<tree id="12" weight="0.1">
		<split>
			<feature> 5 </feature>
			<threshold> 0.06810242 </threshold>
			<split pos="left">
				<feature> 10 </feature>
				<threshold> 0.7592286 </threshold>
				<split pos="left">
					<feature> 7 </feature>
					<threshold> 0.03846154 </threshold>
					<split pos="left">
						<output> -0.8449454307556152 </output>
					</split>
					<split pos="right">
						<feature> 7 </feature>
						<threshold> 0.039215688 </threshold>
						<split pos="left">
							<output> 1.1042448282241821 </output>
						</split>
						<split pos="right">
							<feature> 4 </feature>
							<threshold> 0.027027028 </threshold>
							<split pos="left">
								<output> -0.9550018310546875 </output>
							</split>
							<split pos="right">
								<feature> 6 </feature>
								<threshold> 0.0018986127 </threshold>
								<split pos="left">
									<output> 1.2642301321029663 </output>
								</split>
								<split pos="right">
									<output> 0.7440701723098755 </output>
								</split>
							</split>
						</split>
					</split>
				</split>
				<split pos="right">
					<output> 1.3158856630325317 </output>
				</split>
			</split>
			<split pos="right">
				<feature> 5 </feature>
				<threshold> 0.06912511 </threshold>
				<split pos="left">
					<output> 1.0874117612838745 </output>
				</split>
				<split pos="right">
					<feature> 1 </feature>
					<threshold> 0.07692308 </threshold>
					<split pos="left">
						<feature> 1 </feature>
						<threshold> 0.045454547 </threshold>
						<split pos="left">
							<output> 0.24471186101436615 </output>
						</split>
						<split pos="right">
							<output> 1.043443202972412 </output>
						</split>
					</split>
					<split pos="right">
						<output> -1.6022158861160278 </output>
					</split>
				</split>
			</split>
		</split>
	</tree>
	<tree id="13" weight="0.1">
		<split>
			<feature> 5 </feature>
			<threshold> 0.06810242 </threshold>
			<split pos="left">
				<feature> 10 </feature>
				<threshold> 0.7592286 </threshold>
				<split pos="left">
					<feature> 3 </feature>
					<threshold> 0.029773777 </threshold>
					<split pos="left">
						<output> -0.8707661032676697 </output>
					</split>
					<split pos="right">
						<feature> 3 </feature>
						<threshold> 0.033081975 </threshold>
						<split pos="left">
							<output> 1.0319294929504395 </output>
						</split>
						<split pos="right">
							<feature> 9 </feature>
							<threshold> 0.014979763 </threshold>
							<split pos="left">
								<output> 0.8201210498809814 </output>
							</split>
							<split pos="right">
								<output> -1.0669838190078735 </output>
							</split>
						</split>
					</split>
				</split>
				<split pos="right">
					<output> 1.2619107961654663 </output>
				</split>
			</split>
			<split pos="right">
				<feature> 5 </feature>
				<threshold> 0.06912511 </threshold>
				<split pos="left">
					<output> 1.0743533372879028 </output>
				</split>
				<split pos="right">
					<feature> 2 </feature>
					<threshold> 0.018518519 </threshold>
					<split pos="left">
						<feature> 2 </feature>
						<threshold> 0.016666668 </threshold>
						<split pos="left">
							<feature> 10 </feature>
							<threshold> 0.054230466 </threshold>
							<split pos="left">
								<output> 0.1747443825006485 </output>
							</split>
							<split pos="right">
								<output> 0.9798553586006165 </output>
							</split>
						</split>
						<split pos="right">
							<output> 1.1223082542419434 </output>
						</split>
					</split>
					<split pos="right">
						<output> -0.9707772135734558 </output>
					</split>
				</split>
			</split>
		</split>
	</tree>
	<tree id="14" weight="0.1">
		<split>
			<feature> 5 </feature>
			<threshold> 0.06810242 </threshold>
			<split pos="left">
				<feature> 10 </feature>
				<threshold> 0.7592286 </threshold>
				<split pos="left">
					<feature> 7 </feature>
					<threshold> 0.03448276 </threshold>
					<split pos="left">
						<output> -0.7548729181289673 </output>
					</split>
					<split pos="right">
						<feature> 6 </feature>
						<threshold> 0.0018986127 </threshold>
						<split pos="left">
							<output> 0.9890580177307129 </output>
						</split>
						<split pos="right">
							<output> 0.2514720559120178 </output>
						</split>
					</split>
				</split>
				<split pos="right">
					<output> 1.221473217010498 </output>
				</split>
			</split>
			<split pos="right">
				<feature> 5 </feature>
				<threshold> 0.06912511 </threshold>
				<split pos="left">
					<output> 1.0648423433303833 </output>
				</split>
				<split pos="right">
					<feature> 6 </feature>
					<threshold> 0.032276414 </threshold>
					<split pos="left">
						<feature> 6 </feature>
						<threshold> 0.02847919 </threshold>
						<split pos="left">
							<feature> 3 </feature>
							<threshold> 0.03969837 </threshold>
							<split pos="left">
								<feature> 5 </feature>
								<threshold> 0.5269133 </threshold>
								<split pos="left">
									<output> 0.04908251017332077 </output>
								</split>
								<split pos="right">
									<output> 1.0114901065826416 </output>
								</split>
							</split>
							<split pos="right">
								<output> 1.1387304067611694 </output>
							</split>
						</split>
						<split pos="right">
							<output> 1.2802249193191528 </output>
						</split>
					</split>
					<split pos="right">
						<output> -1.3249619007110596 </output>
					</split>
				</split>
			</split>
		</split>
	</tree>
	<tree id="15" weight="0.1">
		<split>
			<feature> 5 </feature>
			<threshold> 0.06810242 </threshold>
			<split pos="left">
				<feature> 10 </feature>
				<threshold> 0.7592286 </threshold>
				<split pos="left">
					<feature> 7 </feature>
					<threshold> 0.03448276 </threshold>
					<split pos="left">
						<feature> 6 </feature>
						<threshold> 0.0 </threshold>
						<split pos="left">
							<output> 0.47360193729400635 </output>
						</split>
						<split pos="right">
							<output> -0.9491150379180908 </output>
						</split>
					</split>
					<split pos="right">
						<feature> 6 </feature>
						<threshold> 0.0018986127 </threshold>
						<split pos="left">
							<output> 0.9555381536483765 </output>
						</split>
						<split pos="right">
							<output> 0.23075512051582336 </output>
						</split>
					</split>
				</split>
				<split pos="right">
					<output> 1.1873871088027954 </output>
				</split>
			</split>
			<split pos="right">
				<feature> 5 </feature>
				<threshold> 0.06912511 </threshold>
				<split pos="left">
					<output> 1.0565446615219116 </output>
				</split>
				<split pos="right">
					<feature> 6 </feature>
					<threshold> 0.032276414 </threshold>
					<split pos="left">
						<feature> 6 </feature>
						<threshold> 0.02847919 </threshold>
						<split pos="left">
							<feature> 3 </feature>
							<threshold> 0.03969837 </threshold>
							<split pos="left">
								<output> 0.20902332663536072 </output>
							</split>
							<split pos="right">
								<output> 1.1052271127700806 </output>
							</split>
						</split>
						<split pos="right">
							<output> 1.2449069023132324 </output>
						</split>
					</split>
					<split pos="right">
						<output> -1.2709221839904785 </output>
					</split>
				</split>
			</split>
		</split>
	</tree>
	<tree id="16" weight="0.1">
		<split>
			<feature> 5 </feature>
			<threshold> 0.06810242 </threshold>
			<split pos="left">
				<feature> 10 </feature>
				<threshold> 0.7592286 </threshold>
				<split pos="left">
					<feature> 7 </feature>
					<threshold> 0.005952381 </threshold>
					<split pos="left">
						<output> -0.9310725331306458 </output>
					</split>
					<split pos="right">
						<feature> 7 </feature>
						<threshold> 0.0062305294 </threshold>
						<split pos="left">
							<output> 1.0347486734390259 </output>
						</split>
						<split pos="right">
							<feature> 6 </feature>
							<threshold> 0.20884745 </threshold>
							<split pos="left">
								<feature> 1 </feature>
								<threshold> 0.16666667 </threshold>
								<split pos="left">
									<output> 0.1514599621295929 </output>
								</split>
								<split pos="right">
									<output> -2.184079647064209 </output>
								</split>
							</split>
							<split pos="right">
								<output> 1.2239665985107422 </output>
							</split>
						</split>
					</split>
				</split>
				<split pos="right">
					<output> 1.159522294998169 </output>
				</split>
			</split>
			<split pos="right">
				<feature> 5 </feature>
				<threshold> 0.06912511 </threshold>
				<split pos="left">
					<output> 1.049626111984253 </output>
				</split>
				<split pos="right">
					<feature> 2 </feature>
					<threshold> 0.018518519 </threshold>
					<split pos="left">
						<feature> 2 </feature>
						<threshold> 0.016666668 </threshold>
						<split pos="left">
							<output> 0.3693963885307312 </output>
						</split>
						<split pos="right">
							<output> 1.1029095649719238 </output>
						</split>
					</split>
					<split pos="right">
						<output> -0.7798559069633484 </output>
					</split>
				</split>
			</split>
		</split>
	</tree>
	<tree id="17" weight="0.1">
		<split>
			<feature> 5 </feature>
			<threshold> 0.06810242 </threshold>
			<split pos="left">
				<feature> 10 </feature>
				<threshold> 0.7592286 </threshold>
				<split pos="left">
					<feature> 3 </feature>
					<threshold> 0.029773777 </threshold>
					<split pos="left">
						<output> -0.7199721336364746 </output>
					</split>
					<split pos="right">
						<feature> 3 </feature>
						<threshold> 0.033081975 </threshold>
						<split pos="left">
							<output> 0.9674983024597168 </output>
						</split>
						<split pos="right">
							<feature> 1 </feature>
							<threshold> 0.083333336 </threshold>
							<split pos="left">
								<output> -0.3576475977897644 </output>
							</split>
							<split pos="right">
								<output> 0.7341282367706299 </output>
							</split>
						</split>
					</split>
				</split>
				<split pos="right">
					<output> 1.139066457748413 </output>
				</split>
			</split>
			<split pos="right">
				<feature> 5 </feature>
				<threshold> 0.06912511 </threshold>
				<split pos="left">
					<output> 1.0447202920913696 </output>
				</split>
				<split pos="right">
					<feature> 10 </feature>
					<threshold> 0.054230466 </threshold>
					<split pos="left">
						<feature> 2 </feature>
						<threshold> 0.3 </threshold>
						<split pos="left">
							<feature> 6 </feature>
							<threshold> 0.0018986127 </threshold>
							<split pos="left">
								<output> 0.7665949463844299 </output>
							</split>
							<split pos="right">
								<output> -0.092164546251297 </output>
							</split>
						</split>
						<split pos="right">
							<output> -3.19836688041687 </output>
						</split>
					</split>
					<split pos="right">
						<output> 0.7830482721328735 </output>
					</split>
				</split>
			</split>
		</split>
	</tree>
	<tree id="18" weight="0.1">
		<split>
			<feature> 5 </feature>
			<threshold> 0.06810242 </threshold>
			<split pos="left">
				<feature> 10 </feature>
				<threshold> 0.7592286 </threshold>
				<split pos="left">
					<feature> 7 </feature>
					<threshold> 0.03448276 </threshold>
					<split pos="left">
						<feature> 6 </feature>
						<threshold> 0.0 </threshold>
						<split pos="left">
							<output> 0.4340364336967468 </output>
						</split>
						<split pos="right">
							<output> -0.8707505464553833 </output>
						</split>
					</split>
					<split pos="right">
						<feature> 9 </feature>
						<threshold> 0.029959528 </threshold>
						<split pos="left">
							<feature> 6 </feature>
							<threshold> 0.0018986127 </threshold>
							<split pos="left">
								<output> 1.1744784116744995 </output>
							</split>
							<split pos="right">
								<output> 0.48685404658317566 </output>
							</split>
						</split>
						<split pos="right">
							<output> -0.6727030873298645 </output>
						</split>
					</split>
				</split>
				<split pos="right">
					<output> 1.1197162866592407 </output>
				</split>
			</split>
			<split pos="right">
				<feature> 5 </feature>
				<threshold> 0.06912511 </threshold>
				<split pos="left">
					<output> 1.0409748554229736 </output>
				</split>
				<split pos="right">
					<feature> 1 </feature>
					<threshold> 0.07692308 </threshold>
					<split pos="left">
						<feature> 1 </feature>
						<threshold> 0.045454547 </threshold>
						<split pos="left">
							<output> 0.17491629719734192 </output>
						</split>
						<split pos="right">
							<output> 0.9562126398086548 </output>
						</split>
					</split>
					<split pos="right">
						<output> -1.5043262243270874 </output>
					</split>
				</split>
			</split>
		</split>
	</tree>
	<tree id="19" weight="0.1">
		<split>
			<feature> 5 </feature>
			<threshold> 0.06810242 </threshold>
			<split pos="left">
				<feature> 10 </feature>
				<threshold> 0.7592286 </threshold>
				<split pos="left">
					<feature> 10 </feature>
					<threshold> 0.13218674 </threshold>
					<split pos="left">
						<feature> 10 </feature>
						<threshold> 0.10846092 </threshold>
						<split pos="left">
							<feature> 4 </feature>
							<threshold> 0.071428575 </threshold>
							<split pos="left">
								<output> -0.46532386541366577 </output>
							</split>
							<split pos="right">
								<output> 1.093316674232483 </output>
							</split>
						</split>
						<split pos="right">
							<output> -2.175290584564209 </output>
						</split>
					</split>
					<split pos="right">
						<output> 0.5752494931221008 </output>
					</split>
				</split>
				<split pos="right">
					<output> 1.1039437055587769 </output>
				</split>
			</split>
			<split pos="right">
				<feature> 5 </feature>
				<threshold> 0.06912511 </threshold>
				<split pos="left">
					<output> 1.03693425655365 </output>
				</split>
				<split pos="right">
					<feature> 2 </feature>
					<threshold> 0.3 </threshold>
					<split pos="left">
						<feature> 6 </feature>
						<threshold> 0.032276414 </threshold>
						<split pos="left">
							<feature> 6 </feature>
							<threshold> 0.02847919 </threshold>
							<split pos="left">
								<output> 0.38565927743911743 </output>
							</split>
							<split pos="right">
								<output> 1.2012250423431396 </output>
							</split>
						</split>
						<split pos="right">
							<output> -1.1992113590240479 </output>
						</split>
					</split>
					<split pos="right">
						<output> -2.866044521331787 </output>
					</split>
				</split>
			</split>
		</split>
	</tree>
	<tree id="20" weight="0.1">
		<split>
			<feature> 7 </feature>
			<threshold> 0.003125 </threshold>
			<split pos="left">
				<feature> 5 </feature>
				<threshold> 0.07844445 </threshold>
				<split pos="left">
					<output> -0.8172681331634521 </output>
				</split>
				<split pos="right">
					<output> 0.2707146108150482 </output>
				</split>
			</split>
			<split pos="right">
				<feature> 7 </feature>
				<threshold> 0.0062305294 </threshold>
				<split pos="left">
					<feature> 6 </feature>
					<threshold> 0.0037972254 </threshold>
					<split pos="left">
						<feature> 2 </feature>
						<threshold> 0.0 </threshold>
						<split pos="left">
							<output> 1.0782444477081299 </output>
						</split>
						<split pos="right">
							<output> -1.6741254329681396 </output>
						</split>
					</split>
					<split pos="right">
						<output> 0.3643936812877655 </output>
					</split>
				</split>
				<split pos="right">
					<feature> 6 </feature>
					<threshold> 0.20125298 </threshold>
					<split pos="left">
						<feature> 5 </feature>
						<threshold> 0.39386234 </threshold>
						<split pos="left">
							<feature> 1 </feature>
							<threshold> 0.16666667 </threshold>
							<split pos="left">
								<feature> 4 </feature>
								<threshold> 0.041666668 </threshold>
								<split pos="left">
									<output> -0.2817060649394989 </output>
								</split>
								<split pos="right">
									<output> 0.6124848127365112 </output>
								</split>
							</split>
							<split pos="right">
								<output> -1.7053313255310059 </output>
							</split>
						</split>
						<split pos="right">
							<output> 0.8941170573234558 </output>
						</split>
					</split>
					<split pos="right">
						<output> 1.116357684135437 </output>
					</split>
				</split>
			</split>
		</split>
	</tree>
	<tree id="21" weight="0.1">
		<split>
			<feature> 10 </feature>
			<threshold> 0.033894047 </threshold>
			<split pos="left">
				<feature> 5 </feature>
				<threshold> 0.064343214 </threshold>
				<split pos="left">
					<feature> 6 </feature>
					<threshold> 0.0 </threshold>
					<split pos="left">
						<feature> 3 </feature>
						<threshold> 0.02646558 </threshold>
						<split pos="left">
							<output> -0.9078348278999329 </output>
						</split>
						<split pos="right">
							<output> 0.9498561024665833 </output>
						</split>
					</split>
					<split pos="right">
						<output> -0.791304886341095 </output>
					</split>
				</split>
				<split pos="right">
					<feature> 5 </feature>
					<threshold> 0.06912511 </threshold>
					<split pos="left">
						<output> 1.0297718048095703 </output>
					</split>
					<split pos="right">
						<feature> 6 </feature>
						<threshold> 0.0018986127 </threshold>
						<split pos="left">
							<output> 0.5836912989616394 </output>
						</split>
						<split pos="right">
							<output> -0.1649731546640396 </output>
						</split>
					</split>
				</split>
			</split>
			<split pos="right">
				<feature> 5 </feature>
				<threshold> 0.39386234 </threshold>
				<split pos="left">
					<feature> 6 </feature>
					<threshold> 0.19935437 </threshold>
					<split pos="left">
						<feature> 6 </feature>
						<threshold> 0.0037972254 </threshold>
						<split pos="left">
							<output> 0.7874296307563782 </output>
						</split>
						<split pos="right">
							<output> -0.234077587723732 </output>
						</split>
					</split>
					<split pos="right">
						<output> 1.0577325820922852 </output>
					</split>
				</split>
				<split pos="right">
					<output> 0.9739673733711243 </output>
				</split>
			</split>
		</split>
	</tree>
	<tree id="22" weight="0.1">
		<split>
			<feature> 10 </feature>
			<threshold> 0.033894047 </threshold>
			<split pos="left">
				<feature> 9 </feature>
				<threshold> 0.026214587 </threshold>
				<split pos="left">
					<feature> 5 </feature>
					<threshold> 0.064343214 </threshold>
					<split pos="left">
						<feature> 6 </feature>
						<threshold> 0.0 </threshold>
						<split pos="left">
							<output> 0.5281192660331726 </output>
						</split>
						<split pos="right">
							<output> -0.7006266117095947 </output>
						</split>
					</split>
					<split pos="right">
						<feature> 5 </feature>
						<threshold> 0.06912511 </threshold>
						<split pos="left">
							<output> 1.027999758720398 </output>
						</split>
						<split pos="right">
							<feature> 6 </feature>
							<threshold> 0.0018986127 </threshold>
							<split pos="left">
								<output> 0.6545289158821106 </output>
							</split>
							<split pos="right">
								<output> 0.05390080437064171 </output>
							</split>
						</split>
					</split>
				</split>
				<split pos="right">
					<output> -1.1600592136383057 </output>
				</split>
			</split>
			<split pos="right">
				<feature> 5 </feature>
				<threshold> 0.39386234 </threshold>
				<split pos="left">
					<feature> 6 </feature>
					<threshold> 0.19935437 </threshold>
					<split pos="left">
						<feature> 6 </feature>
						<threshold> 0.0037972254 </threshold>
						<split pos="left">
							<output> 0.7648056149482727 </output>
						</split>
						<split pos="right">
							<output> -0.17531809210777283 </output>
						</split>
					</split>
					<split pos="right">
						<output> 0.9907548427581787 </output>
					</split>
				</split>
				<split pos="right">
					<output> 0.9540978670120239 </output>
				</split>
			</split>
		</split>
	</tree>
	<tree id="23" weight="0.1">
		<split>
			<feature> 6 </feature>
			<threshold> 0.37972292 </threshold>
			<split pos="left">
				<feature> 7 </feature>
				<threshold> 0.003125 </threshold>
				<split pos="left">
					<feature> 5 </feature>
					<threshold> 0.5 </threshold>
					<split pos="left">
						<feature> 5 </feature>
						<threshold> 0.07844445 </threshold>
						<split pos="left">
							<output> -0.7075023651123047 </output>
						</split>
						<split pos="right">
							<output> 0.259739488363266 </output>
						</split>
					</split>
					<split pos="right">
						<output> -2.223160982131958 </output>
					</split>
				</split>
				<split pos="right">
					<feature> 7 </feature>
					<threshold> 0.0062305294 </threshold>
					<split pos="left">
						<output> 0.9011996388435364 </output>
					</split>
					<split pos="right">
						<feature> 6 </feature>
						<threshold> 0.30187964 </threshold>
						<split pos="left">
							<feature> 1 </feature>
							<threshold> 0.16666667 </threshold>
							<split pos="left">
								<feature> 5 </feature>
								<threshold> 0.39386234 </threshold>
								<split pos="left">
									<feature> 4 </feature>
									<threshold> 0.041666668 </threshold>
									<split pos="left">
										<output> -0.21925346553325653 </output>
									</split>
									<split pos="right">
										<output> 0.7583172917366028 </output>
									</split>
								</split>
								<split pos="right">
									<output> 1.0489532947540283 </output>
								</split>
							</split>
							<split pos="right">
								<output> -2.0173404216766357 </output>
							</split>
						</split>
						<split pos="right">
							<output> 1.9340134859085083 </output>
						</split>
					</split>
				</split>
			</split>
			<split pos="right">
				<output> -2.4187746047973633 </output>
			</split>
		</split>
	</tree>
	<tree id="24" weight="0.1">
		<split>
			<feature> 10 </feature>
			<threshold> 0.033894047 </threshold>
			<split pos="left">
				<feature> 6 </feature>
				<threshold> 0.005695838 </threshold>
				<split pos="left">
					<feature> 5 </feature>
					<threshold> 0.05940379 </threshold>
					<split pos="left">
						<feature> 4 </feature>
						<threshold> 0.071428575 </threshold>
						<split pos="left">
							<output> -0.22002889215946198 </output>
						</split>
						<split pos="right">
							<output> 4.260725975036621 </output>
						</split>
					</split>
					<split pos="right">
						<feature> 5 </feature>
						<threshold> 0.06912511 </threshold>
						<split pos="left">
							<output> 1.0246028900146484 </output>
						</split>
						<split pos="right">
							<feature> 5 </feature>
							<threshold> 0.078907244 </threshold>
							<split pos="left">
								<output> 0.937470018863678 </output>
							</split>
							<split pos="right">
								<output> -0.14056013524532318 </output>
							</split>
						</split>
					</split>
				</split>
				<split pos="right">
					<output> -0.6645800471305847 </output>
				</split>
			</split>
			<split pos="right">
				<feature> 5 </feature>
				<threshold> 0.39386234 </threshold>
				<split pos="left">
					<feature> 6 </feature>
					<threshold> 0.19935437 </threshold>
					<split pos="left">
						<feature> 6 </feature>
						<threshold> 0.0018986127 </threshold>
						<split pos="left">
							<output> 0.7614283561706543 </output>
						</split>
						<split pos="right">
							<output> -0.13932138681411743 </output>
						</split>
					</split>
					<split pos="right">
						<output> 0.9534460306167603 </output>
					</split>
				</split>
				<split pos="right">
					<output> 0.9167575240135193 </output>
				</split>
			</split>
		</split>
	</tree>
	<tree id="25" weight="0.1">
		<split>
			<feature> 10 </feature>
			<threshold> 0.033894047 </threshold>
			<split pos="left">
				<feature> 1 </feature>
				<threshold> 0.07692308 </threshold>
				<split pos="left">
					<feature> 5 </feature>
					<threshold> 0.056598634 </threshold>
					<split pos="left">
						<output> -0.4707089066505432 </output>
					</split>
					<split pos="right">
						<feature> 1 </feature>
						<threshold> 0.0625 </threshold>
						<split pos="left">
							<feature> 5 </feature>
							<threshold> 0.06912511 </threshold>
							<split pos="left">
								<output> 1.028950810432434 </output>
							</split>
							<split pos="right">
								<output> -0.011821596883237362 </output>
							</split>
						</split>
						<split pos="right">
							<output> 0.9085447788238525 </output>
						</split>
					</split>
				</split>
				<split pos="right">
					<output> -1.130453109741211 </output>
				</split>
			</split>
			<split pos="right">
				<feature> 6 </feature>
				<threshold> 0.19935437 </threshold>
				<split pos="left">
					<feature> 5 </feature>
					<threshold> 0.39386234 </threshold>
					<split pos="left">
						<feature> 7 </feature>
						<threshold> 0.17073171 </threshold>
						<split pos="left">
							<feature> 7 </feature>
							<threshold> 0.15294118 </threshold>
							<split pos="left">
								<output> 0.15094685554504395 </output>
							</split>
							<split pos="right">
								<output> 1.2160060405731201 </output>
							</split>
						</split>
						<split pos="right">
							<output> -0.9830741286277771 </output>
						</split>
					</split>
					<split pos="right">
						<output> 0.8832240104675293 </output>
					</split>
				</split>
				<split pos="right">
					<output> 0.9904338717460632 </output>
				</split>
			</split>
		</split>
	</tree>
	<tree id="26" weight="0.1">
		<split>
			<feature> 10 </feature>
			<threshold> 0.033894047 </threshold>
			<split pos="left">
				<feature> 5 </feature>
				<threshold> 0.1879587 </threshold>
				<split pos="left">
					<feature> 5 </feature>
					<threshold> 0.18543218 </threshold>
					<split pos="left">
						<feature> 6 </feature>
						<threshold> 0.0037972254 </threshold>
						<split pos="left">
							<feature> 5 </feature>
							<threshold> 0.05940379 </threshold>
							<split pos="left">
								<feature> 3 </feature>
								<threshold> 0.029773777 </threshold>
								<split pos="left">
									<output> -0.2534615099430084 </output>
								</split>
								<split pos="right">
									<output> 0.5941293239593506 </output>
								</split>
							</split>
							<split pos="right">
								<output> 0.48310476541519165 </output>
							</split>
						</split>
						<split pos="right">
							<output> -0.7692342400550842 </output>
						</split>
					</split>
					<split pos="right">
						<output> 1.1559007167816162 </output>
					</split>
				</split>
				<split pos="right">
					<output> -0.786115825176239 </output>
				</split>
			</split>
			<split pos="right">
				<feature> 6 </feature>
				<threshold> 0.19935437 </threshold>
				<split pos="left">
					<feature> 7 </feature>
					<threshold> 0.17073171 </threshold>
					<split pos="left">
						<feature> 7 </feature>
						<threshold> 0.15294118 </threshold>
						<split pos="left">
							<output> 0.3364100158214569 </output>
						</split>
						<split pos="right">
							<output> 1.2221698760986328 </output>
						</split>
					</split>
					<split pos="right">
						<output> -0.9986532330513 </output>
					</split>
				</split>
				<split pos="right">
					<output> 0.9277945756912231 </output>
				</split>
			</split>
		</split>
	</tree>
	<tree id="27" weight="0.1">
		<split>
			<feature> 6 </feature>
			<threshold> 0.30187964 </threshold>
			<split pos="left">
				<feature> 1 </feature>
				<threshold> 0.16666667 </threshold>
				<split pos="left">
					<feature> 10 </feature>
					<threshold> 0.033894047 </threshold>
					<split pos="left">
						<feature> 5 </feature>
						<threshold> 0.30306882 </threshold>
						<split pos="left">
							<feature> 5 </feature>
							<threshold> 0.2799132 </threshold>
							<split pos="left">
								<feature> 5 </feature>
								<threshold> 0.20590366 </threshold>
								<split pos="left">
									<feature> 5 </feature>
									<threshold> 0.18543218 </threshold>
									<split pos="left">
										<feature> 5 </feature>
										<threshold> 0.08102757 </threshold>
										<split pos="left">
											<feature> 5 </feature>
											<threshold> 0.07844445 </threshold>
											<split pos="left">
												<output> -0.2971115708351135 </output>
											</split>
											<split pos="right">
												<output> 0.8418590426445007 </output>
											</split>
										</split>
										<split pos="right">
											<output> -0.7698312401771545 </output>
										</split>
									</split>
									<split pos="right">
										<output> 0.8233615159988403 </output>
									</split>
								</split>
								<split pos="right">
									<output> -2.093285083770752 </output>
								</split>
							</split>
							<split pos="right">
								<output> 1.200634479522705 </output>
							</split>
						</split>
						<split pos="right">
							<output> -1.4363857507705688 </output>
						</split>
					</split>
					<split pos="right">
						<output> 0.3321976661682129 </output>
					</split>
				</split>
				<split pos="right">
					<output> -1.3049689531326294 </output>
				</split>
			</split>
			<split pos="right">
				<output> 0.8853612542152405 </output>
			</split>
		</split>
	</tree>
	<tree id="28" weight="0.1">
		<split>
			<feature> 6 </feature>
			<threshold> 0.30187964 </threshold>
			<split pos="left">
				<feature> 1 </feature>
				<threshold> 0.11111111 </threshold>
				<split pos="left">
					<feature> 10 </feature>
					<threshold> 0.044062257 </threshold>
					<split pos="left">
						<feature> 6 </feature>
						<threshold> 0.005695838 </threshold>
						<split pos="left">
							<feature> 3 </feature>
							<threshold> 0.029773777 </threshold>
							<split pos="left">
								<feature> 5 </feature>
								<threshold> 0.078907244 </threshold>
								<split pos="left">
									<feature> 5 </feature>
									<threshold> 0.07125795 </threshold>
									<split pos="left">
										<output> 0.01755295693874359 </output>
									</split>
									<split pos="right">
										<output> 1.050085425376892 </output>
									</split>
								</split>
								<split pos="right">
									<output> -0.8054867386817932 </output>
								</split>
							</split>
							<split pos="right">
								<output> 0.7542229294776917 </output>
							</split>
						</split>
						<split pos="right">
							<output> -0.5914238691329956 </output>
						</split>
					</split>
					<split pos="right">
						<feature> 5 </feature>
						<threshold> 0.39386234 </threshold>
						<split pos="left">
							<feature> 1 </feature>
							<threshold> 0.083333336 </threshold>
							<split pos="left">
								<output> 0.12908999621868134 </output>
							</split>
							<split pos="right">
								<output> 0.8954116106033325 </output>
							</split>
						</split>
						<split pos="right">
							<output> 1.0310319662094116 </output>
						</split>
					</split>
				</split>
				<split pos="right">
					<output> -0.910121738910675 </output>
				</split>
			</split>
			<split pos="right">
				<output> 0.7698660492897034 </output>
			</split>
		</split>
	</tree>
	<tree id="29" weight="0.1">
		<split>
			<feature> 6 </feature>
			<threshold> 0.30187964 </threshold>
			<split pos="left">
				<feature> 1 </feature>
				<threshold> 0.11111111 </threshold>
				<split pos="left">
					<feature> 10 </feature>
					<threshold> 0.044062257 </threshold>
					<split pos="left">
						<feature> 5 </feature>
						<threshold> 0.30306882 </threshold>
						<split pos="left">
							<feature> 5 </feature>
							<threshold> 0.2799132 </threshold>
							<split pos="left">
								<feature> 5 </feature>
								<threshold> 0.18543218 </threshold>
								<split pos="left">
									<feature> 6 </feature>
									<threshold> 0.0037972254 </threshold>
									<split pos="left">
										<feature> 10 </feature>
										<threshold> 0.0033894049 </threshold>
										<split pos="left">
											<output> -0.2584061026573181 </output>
										</split>
										<split pos="right">
											<output> 0.8719587922096252 </output>
										</split>
									</split>
									<split pos="right">
										<output> -0.7110563516616821 </output>
									</split>
								</split>
								<split pos="right">
									<output> 0.5509137511253357 </output>
								</split>
							</split>
							<split pos="right">
								<output> 1.1789484024047852 </output>
							</split>
						</split>
						<split pos="right">
							<output> -1.2922139167785645 </output>
						</split>
					</split>
					<split pos="right">
						<feature> 5 </feature>
						<threshold> 0.39386234 </threshold>
						<split pos="left">
							<output> 0.27933722734451294 </output>
						</split>
						<split pos="right">
							<output> 1.0276086330413818 </output>
						</split>
					</split>
				</split>
				<split pos="right">
					<output> -0.857171356678009 </output>
				</split>
			</split>
			<split pos="right">
				<output> 0.6981493830680847 </output>
			</split>
		</split>
	</tree>
	<tree id="30" weight="0.1">
		<split>
			<feature> 6 </feature>
			<threshold> 0.30187964 </threshold>
			<split pos="left">
				<feature> 1 </feature>
				<threshold> 0.11111111 </threshold>
				<split pos="left">
					<feature> 7 </feature>
					<threshold> 0.03448276 </threshold>
					<split pos="left">
						<feature> 5 </feature>
						<threshold> 0.06810242 </threshold>
						<split pos="left">
							<output> -0.43224456906318665 </output>
						</split>
						<split pos="right">
							<feature> 5 </feature>
							<threshold> 0.06912511 </threshold>
							<split pos="left">
								<output> 1.0191131830215454 </output>
							</split>
							<split pos="right">
								<feature> 3 </feature>
								<threshold> 0.15548527 </threshold>
								<split pos="left">
									<output> 0.04480535537004471 </output>
								</split>
								<split pos="right">
									<output> 1.0501081943511963 </output>
								</split>
							</split>
						</split>
					</split>
					<split pos="right">
						<feature> 6 </feature>
						<threshold> 0.05505977 </threshold>
						<split pos="left">
							<feature> 1 </feature>
							<threshold> 0.083333336 </threshold>
							<split pos="left">
								<feature> 4 </feature>
								<threshold> 0.05 </threshold>
								<split pos="left">
									<output> 0.2716282904148102 </output>
								</split>
								<split pos="right">
									<output> 0.8339963555335999 </output>
								</split>
							</split>
							<split pos="right">
								<output> 1.1524124145507812 </output>
							</split>
						</split>
						<split pos="right">
							<output> -0.7680608630180359 </output>
						</split>
					</split>
				</split>
				<split pos="right">
					<output> -0.8512890338897705 </output>
				</split>
			</split>
			<split pos="right">
				<output> 0.6415005326271057 </output>
			</split>
		</split>
	</tree>
	<tree id="31" weight="0.1">
		<split>
			<feature> 10 </feature>
			<threshold> 0.044062257 </threshold>
			<split pos="left">
				<feature> 1 </feature>
				<threshold> 0.07692308 </threshold>
				<split pos="left">
					<feature> 5 </feature>
					<threshold> 0.056598634 </threshold>
					<split pos="left">
						<feature> 6 </feature>
						<threshold> 0.0037972254 </threshold>
						<split pos="left">
							<feature> 4 </feature>
							<threshold> 0.071428575 </threshold>
							<split pos="left">
								<output> 0.11653996258974075 </output>
							</split>
							<split pos="right">
								<output> 1.8776956796646118 </output>
							</split>
						</split>
						<split pos="right">
							<output> -0.8930736184120178 </output>
						</split>
					</split>
					<split pos="right">
						<feature> 1 </feature>
						<threshold> 0.0625 </threshold>
						<split pos="left">
							<feature> 5 </feature>
							<threshold> 0.06912511 </threshold>
							<split pos="left">
								<output> 1.061275839805603 </output>
							</split>
							<split pos="right">
								<output> -0.052221477031707764 </output>
							</split>
						</split>
						<split pos="right">
							<output> 0.8629426956176758 </output>
						</split>
					</split>
				</split>
				<split pos="right">
					<output> -1.0903388261795044 </output>
				</split>
			</split>
			<split pos="right">
				<feature> 6 </feature>
				<threshold> 0.20125298 </threshold>
				<split pos="left">
					<feature> 7 </feature>
					<threshold> 0.06535948 </threshold>
					<split pos="left">
						<output> 0.6524497866630554 </output>
					</split>
					<split pos="right">
						<output> -0.29357820749282837 </output>
					</split>
				</split>
				<split pos="right">
					<output> 0.8746121525764465 </output>
				</split>
			</split>
		</split>
	</tree>
	<tree id="32" weight="0.1">
		<split>
			<feature> 6 </feature>
			<threshold> 0.37972292 </threshold>
			<split pos="left">
				<feature> 6 </feature>
				<threshold> 0.37022984 </threshold>
				<split pos="left">
					<feature> 10 </feature>
					<threshold> 0.0033894049 </threshold>
					<split pos="left">
						<feature> 5 </feature>
						<threshold> 0.30306882 </threshold>
						<split pos="left">
							<output> -0.23999227583408356 </output>
						</split>
						<split pos="right">
							<output> -1.2829267978668213 </output>
						</split>
					</split>
					<split pos="right">
						<feature> 6 </feature>
						<threshold> 0.28289348 </threshold>
						<split pos="left">
							<feature> 7 </feature>
							<threshold> 0.06535948 </threshold>
							<split pos="left">
								<feature> 7 </feature>
								<threshold> 0.062068965 </threshold>
								<split pos="left">
									<feature> 4 </feature>
									<threshold> 0.071428575 </threshold>
									<split pos="left">
										<feature> 3 </feature>
										<threshold> 0.029773777 </threshold>
										<split pos="left">
											<output> 0.10637008398771286 </output>
										</split>
										<split pos="right">
											<output> 0.6488078832626343 </output>
										</split>
									</split>
									<split pos="right">
										<output> 0.95704585313797 </output>
									</split>
								</split>
								<split pos="right">
									<output> 1.0667005777359009 </output>
								</split>
							</split>
							<split pos="right">
								<output> -0.3078998029232025 </output>
							</split>
						</split>
						<split pos="right">
							<output> 1.2170594930648804 </output>
						</split>
					</split>
				</split>
				<split pos="right">
					<output> 1.2091882228851318 </output>
				</split>
			</split>
			<split pos="right">
				<output> -3.9283525943756104 </output>
			</split>
		</split>
	</tree>
	<tree id="33" weight="0.1">
		<split>
			<feature> 11 </feature>
			<threshold> 0.045277063 </threshold>
			<split pos="left">
				<feature> 10 </feature>
				<threshold> 0.044062257 </threshold>
				<split pos="left">
					<feature> 1 </feature>
					<threshold> 0.07692308 </threshold>
					<split pos="left">
						<feature> 5 </feature>
						<threshold> 0.056598634 </threshold>
						<split pos="left">
							<feature> 6 </feature>
							<threshold> 0.0037972254 </threshold>
							<split pos="left">
								<feature> 4 </feature>
								<threshold> 0.071428575 </threshold>
								<split pos="left">
									<output> 0.26311376690864563 </output>
								</split>
								<split pos="right">
									<output> 1.5863490104675293 </output>
								</split>
							</split>
							<split pos="right">
								<output> -0.8681501150131226 </output>
							</split>
						</split>
						<split pos="right">
							<feature> 11 </feature>
							<threshold> 0.0037730883 </threshold>
							<split pos="left">
								<output> -0.008704992942512035 </output>
							</split>
							<split pos="right">
								<output> 0.7321397066116333 </output>
							</split>
						</split>
					</split>
					<split pos="right">
						<output> -1.25156831741333 </output>
					</split>
				</split>
				<split pos="right">
					<feature> 6 </feature>
					<threshold> 0.18226682 </threshold>
					<split pos="left">
						<feature> 9 </feature>
						<threshold> 0.07115387 </threshold>
						<split pos="left">
							<output> 0.19718146324157715 </output>
						</split>
						<split pos="right">
							<output> 0.8829396367073059 </output>
						</split>
					</split>
					<split pos="right">
						<output> 1.1435508728027344 </output>
					</split>
				</split>
			</split>
			<split pos="right">
				<output> -0.6259101629257202 </output>
			</split>
		</split>
	</tree>
	<tree id="34" weight="0.1">
		<split>
			<feature> 11 </feature>
			<threshold> 0.045277063 </threshold>
			<split pos="left">
				<feature> 10 </feature>
				<threshold> 0.044062257 </threshold>
				<split pos="left">
					<feature> 6 </feature>
					<threshold> 0.005695838 </threshold>
					<split pos="left">
						<feature> 3 </feature>
						<threshold> 0.02646558 </threshold>
						<split pos="left">
							<feature> 4 </feature>
							<threshold> 0.071428575 </threshold>
							<split pos="left">
								<feature> 5 </feature>
								<threshold> 0.078907244 </threshold>
								<split pos="left">
									<feature> 5 </feature>
									<threshold> 0.07125795 </threshold>
									<split pos="left">
										<output> 0.04753599688410759 </output>
									</split>
									<split pos="right">
										<output> 1.0436569452285767 </output>
									</split>
								</split>
								<split pos="right">
									<output> -0.6662555932998657 </output>
								</split>
							</split>
							<split pos="right">
								<output> 1.4752923250198364 </output>
							</split>
						</split>
						<split pos="right">
							<output> 0.7852523326873779 </output>
						</split>
					</split>
					<split pos="right">
						<output> -0.5581825375556946 </output>
					</split>
				</split>
				<split pos="right">
					<feature> 6 </feature>
					<threshold> 0.18226682 </threshold>
					<split pos="left">
						<feature> 9 </feature>
						<threshold> 0.07115387 </threshold>
						<split pos="left">
							<output> 0.1703561246395111 </output>
						</split>
						<split pos="right">
							<output> 0.76731276512146 </output>
						</split>
					</split>
					<split pos="right">
						<output> 1.1165980100631714 </output>
					</split>
				</split>
			</split>
			<split pos="right">
				<output> -0.6421538591384888 </output>
			</split>
		</split>
	</tree>
	<tree id="35" weight="0.1">
		<split>
			<feature> 10 </feature>
			<threshold> 0.044062257 </threshold>
			<split pos="left">
				<feature> 1 </feature>
				<threshold> 0.07692308 </threshold>
				<split pos="left">
					<feature> 5 </feature>
					<threshold> 0.056598634 </threshold>
					<split pos="left">
						<feature> 3 </feature>
						<threshold> 0.033081975 </threshold>
						<split pos="left">
							<feature> 3 </feature>
							<threshold> 0.029773777 </threshold>
							<split pos="left">
								<output> -0.3795514404773712 </output>
							</split>
							<split pos="right">
								<output> 0.8712562322616577 </output>
							</split>
						</split>
						<split pos="right">
							<output> -1.0897817611694336 </output>
						</split>
					</split>
					<split pos="right">
						<feature> 5 </feature>
						<threshold> 0.08102757 </threshold>
						<split pos="left">
							<output> 0.6710155010223389 </output>
						</split>
						<split pos="right">
							<feature> 3 </feature>
							<threshold> 0.03969837 </threshold>
							<split pos="left">
								<output> -0.24033322930335999 </output>
							</split>
							<split pos="right">
								<output> 1.1512905359268188 </output>
							</split>
						</split>
					</split>
				</split>
				<split pos="right">
					<output> -1.1226356029510498 </output>
				</split>
			</split>
			<split pos="right">
				<feature> 6 </feature>
				<threshold> 0.19935437 </threshold>
				<split pos="left">
					<feature> 7 </feature>
					<threshold> 0.06535948 </threshold>
					<split pos="left">
						<output> 0.5675879120826721 </output>
					</split>
					<split pos="right">
						<output> -0.29280874133110046 </output>
					</split>
				</split>
				<split pos="right">
					<output> 0.7783029079437256 </output>
				</split>
			</split>
		</split>
	</tree>
	<tree id="36" weight="0.1">
		<split>
			<feature> 3 </feature>
			<threshold> 0.07278036 </threshold>
			<split pos="left">
				<feature> 10 </feature>
				<threshold> 0.12879734 </threshold>
				<split pos="left">
					<feature> 10 </feature>
					<threshold> 0.09829271 </threshold>
					<split pos="left">
						<feature> 10 </feature>
						<threshold> 0.0915139 </threshold>
						<split pos="left">
							<feature> 3 </feature>
							<threshold> 0.029773777 </threshold>
							<split pos="left">
								<feature> 5 </feature>
								<threshold> 0.1879587 </threshold>
								<split pos="left">
									<feature> 5 </feature>
									<threshold> 0.18543218 </threshold>
									<split pos="left">
										<feature> 7 </feature>
										<threshold> 0.1097561 </threshold>
										<split pos="left">
											<feature> 5 </feature>
											<threshold> 0.08102757 </threshold>
											<split pos="left">
												<output> -0.12967993319034576 </output>
											</split>
											<split pos="right">
												<output> -0.5787397623062134 </output>
											</split>
										</split>
										<split pos="right">
											<output> 3.7343509197235107 </output>
										</split>
									</split>
									<split pos="right">
										<output> 1.115512728691101 </output>
									</split>
								</split>
								<split pos="right">
									<output> -0.8231959939002991 </output>
								</split>
							</split>
							<split pos="right">
								<output> 0.5364076495170593 </output>
							</split>
						</split>
						<split pos="right">
							<output> 0.7700948119163513 </output>
						</split>
					</split>
					<split pos="right">
						<output> -0.9948976039886475 </output>
					</split>
				</split>
				<split pos="right">
					<output> 0.5618008971214294 </output>
				</split>
			</split>
			<split pos="right">
				<output> -0.5284624695777893 </output>
			</split>
		</split>
	</tree>
	<tree id="37" weight="0.1">
		<split>
			<feature> 11 </feature>
			<threshold> 0.045277063 </threshold>
			<split pos="left">
				<feature> 7 </feature>
				<threshold> 0.15294118 </threshold>
				<split pos="left">
					<feature> 11 </feature>
					<threshold> 0.041503973 </threshold>
					<split pos="left">
						<feature> 7 </feature>
						<threshold> 0.105747126 </threshold>
						<split pos="left">
							<feature> 10 </feature>
							<threshold> 0.044062257 </threshold>
							<split pos="left">
								<feature> 1 </feature>
								<threshold> 0.07692308 </threshold>
								<split pos="left">
									<feature> 5 </feature>
									<threshold> 0.056598634 </threshold>
									<split pos="left">
										<feature> 6 </feature>
										<threshold> 0.0037972254 </threshold>
										<split pos="left">
											<output> 0.34703949093818665 </output>
										</split>
										<split pos="right">
											<output> -0.9360713958740234 </output>
										</split>
									</split>
									<split pos="right">
										<feature> 11 </feature>
										<threshold> 0.0037730883 </threshold>
										<split pos="left">
											<output> 0.009583065286278725 </output>
										</split>
										<split pos="right">
											<output> 0.7020553946495056 </output>
										</split>
									</split>
								</split>
								<split pos="right">
									<output> -1.2063064575195312 </output>
								</split>
							</split>
							<split pos="right">
								<output> 0.4029765725135803 </output>
							</split>
						</split>
						<split pos="right">
							<output> -1.261673927307129 </output>
						</split>
					</split>
					<split pos="right">
						<output> 0.7313359379768372 </output>
					</split>
				</split>
				<split pos="right">
					<output> 0.6350365877151489 </output>
				</split>
			</split>
			<split pos="right">
				<output> -0.5774611234664917 </output>
			</split>
		</split>
	</tree>
	<tree id="38" weight="0.1">
		<split>
			<feature> 9 </feature>
			<threshold> 0.04493929 </threshold>
			<split pos="left">
				<feature> 7 </feature>
				<threshold> 0.15294118 </threshold>
				<split pos="left">
					<feature> 5 </feature>
					<threshold> 0.056598634 </threshold>
					<split pos="left">
						<feature> 3 </feature>
						<threshold> 0.30435416 </threshold>
						<split pos="left">
							<feature> 3 </feature>
							<threshold> 0.24811465 </threshold>
							<split pos="left">
								<feature> 6 </feature>
								<threshold> 0.005695838 </threshold>
								<split pos="left">
									<feature> 4 </feature>
									<threshold> 0.041666668 </threshold>
									<split pos="left">
										<output> 5.149922799319029E-4 </output>
									</split>
									<split pos="right">
										<feature> 9 </feature>
										<threshold> 0.0037449407 </threshold>
										<split pos="left">
											<output> -1.68946373462677 </output>
										</split>
										<split pos="right">
											<output> 1.6434803009033203 </output>
										</split>
									</split>
								</split>
								<split pos="right">
									<output> -0.8425557017326355 </output>
								</split>
							</split>
							<split pos="right">
								<output> 0.7507360577583313 </output>
							</split>
						</split>
						<split pos="right">
							<output> -1.4944959878921509 </output>
						</split>
					</split>
					<split pos="right">
						<feature> 11 </feature>
						<threshold> 0.0037730883 </threshold>
						<split pos="left">
							<output> -0.12617680430412292 </output>
						</split>
						<split pos="right">
							<output> 0.6641310453414917 </output>
						</split>
					</split>
				</split>
				<split pos="right">
					<output> 0.5407020449638367 </output>
				</split>
			</split>
			<split pos="right">
				<output> -0.4722384512424469 </output>
			</split>
		</split>
	</tree>
	<tree id="39" weight="0.1">
		<split>
			<feature> 11 </feature>
			<threshold> 0.045277063 </threshold>
			<split pos="left">
				<feature> 7 </feature>
				<threshold> 0.03448276 </threshold>
				<split pos="left">
					<feature> 6 </feature>
					<threshold> 0.005695838 </threshold>
					<split pos="left">
						<feature> 4 </feature>
						<threshold> 0.041666668 </threshold>
						<split pos="left">
							<feature> 5 </feature>
							<threshold> 0.054483257 </threshold>
							<split pos="left">
								<output> -0.2280949354171753 </output>
							</split>
							<split pos="right">
								<output> 0.3778461217880249 </output>
							</split>
						</split>
						<split pos="right">
							<feature> 11 </feature>
							<threshold> 0.0075461767 </threshold>
							<split pos="left">
								<feature> 9 </feature>
								<threshold> 0.0037449407 </threshold>
								<split pos="left">
									<output> -1.6212292909622192 </output>
								</split>
								<split pos="right">
									<feature> 11 </feature>
									<threshold> 0.0 </threshold>
									<split pos="left">
										<output> -0.8324127197265625 </output>
									</split>
									<split pos="right">
										<output> 1.5914362668991089 </output>
									</split>
								</split>
							</split>
							<split pos="right">
								<output> 0.016993312165141106 </output>
							</split>
						</split>
					</split>
					<split pos="right">
						<output> -0.5502637028694153 </output>
					</split>
				</split>
				<split pos="right">
					<feature> 6 </feature>
					<threshold> 0.30187964 </threshold>
					<split pos="left">
						<output> 0.2785881459712982 </output>
					</split>
					<split pos="right">
						<output> 1.1746755838394165 </output>
					</split>
				</split>
			</split>
			<split pos="right">
				<output> -0.6388314366340637 </output>
			</split>
		</split>
	</tree>
	<tree id="40" weight="0.1">
		<split>
			<feature> 9 </feature>
			<threshold> 0.04493929 </threshold>
			<split pos="left">
				<feature> 7 </feature>
				<threshold> 0.15294118 </threshold>
				<split pos="left">
					<feature> 6 </feature>
					<threshold> 0.005695838 </threshold>
					<split pos="left">
						<feature> 4 </feature>
						<threshold> 0.041666668 </threshold>
						<split pos="left">
							<feature> 3 </feature>
							<threshold> 0.02646558 </threshold>
							<split pos="left">
								<output> -0.04114765301346779 </output>
							</split>
							<split pos="right">
								<output> 0.7067886590957642 </output>
							</split>
						</split>
						<split pos="right">
							<feature> 11 </feature>
							<threshold> 0.0075461767 </threshold>
							<split pos="left">
								<feature> 9 </feature>
								<threshold> 0.0037449407 </threshold>
								<split pos="left">
									<output> -1.3695261478424072 </output>
								</split>
								<split pos="right">
									<feature> 4 </feature>
									<threshold> 0.05 </threshold>
									<split pos="left">
										<feature> 1 </feature>
										<threshold> 0.0 </threshold>
										<split pos="left">
											<output> 1.636910080909729 </output>
										</split>
										<split pos="right">
											<output> -1.508466362953186 </output>
										</split>
									</split>
									<split pos="right">
										<output> 1.3985470533370972 </output>
									</split>
								</split>
							</split>
							<split pos="right">
								<output> 0.34358370304107666 </output>
							</split>
						</split>
					</split>
					<split pos="right">
						<output> -0.3353455364704132 </output>
					</split>
				</split>
				<split pos="right">
					<output> 0.470775842666626 </output>
				</split>
			</split>
			<split pos="right">
				<output> -0.5441139936447144 </output>
			</split>
		</split>
	</tree>
	<tree id="41" weight="0.1">
		<split>
			<feature> 9 </feature>
			<threshold> 0.097368434 </threshold>
			<split pos="left">
				<feature> 3 </feature>
				<threshold> 0.36059368 </threshold>
				<split pos="left">
					<feature> 10 </feature>
					<threshold> 0.044062257 </threshold>
					<split pos="left">
						<feature> 6 </feature>
						<threshold> 0.005695838 </threshold>
						<split pos="left">
							<feature> 4 </feature>
							<threshold> 0.041666668 </threshold>
							<split pos="left">
								<output> 0.05068725347518921 </output>
							</split>
							<split pos="right">
								<feature> 11 </feature>
								<threshold> 0.0075461767 </threshold>
								<split pos="left">
									<feature> 9 </feature>
									<threshold> 0.0037449407 </threshold>
									<split pos="left">
										<output> -1.2915949821472168 </output>
									</split>
									<split pos="right">
										<feature> 11 </feature>
										<threshold> 0.0 </threshold>
										<split pos="left">
											<output> -1.0284414291381836 </output>
										</split>
										<split pos="right">
											<feature> 1 </feature>
											<threshold> 0.0 </threshold>
											<split pos="left">
												<output> 1.5357716083526611 </output>
											</split>
											<split pos="right">
												<output> -0.9011656641960144 </output>
											</split>
										</split>
									</split>
								</split>
								<split pos="right">
									<output> -0.19879934191703796 </output>
								</split>
							</split>
						</split>
						<split pos="right">
							<output> -0.5127144455909729 </output>
						</split>
					</split>
					<split pos="right">
						<output> 0.3307821452617645 </output>
					</split>
				</split>
				<split pos="right">
					<output> -1.366139531135559 </output>
				</split>
			</split>
			<split pos="right">
				<output> -0.8567339777946472 </output>
			</split>
		</split>
	</tree>
	<tree id="42" weight="0.1">
		<split>
			<feature> 9 </feature>
			<threshold> 0.04493929 </threshold>
			<split pos="left">
				<feature> 10 </feature>
				<threshold> 0.013557619 </threshold>
				<split pos="left">
					<feature> 2 </feature>
					<threshold> 0.6451613 </threshold>
					<split pos="left">
						<feature> 6 </feature>
						<threshold> 0.29048795 </threshold>
						<split pos="left">
							<feature> 5 </feature>
							<threshold> 0.30306882 </threshold>
							<split pos="left">
								<feature> 5 </feature>
								<threshold> 0.18543218 </threshold>
								<split pos="left">
									<feature> 5 </feature>
									<threshold> 0.08102757 </threshold>
									<split pos="left">
										<feature> 5 </feature>
										<threshold> 0.07844445 </threshold>
										<split pos="left">
											<output> -0.10515429079532623 </output>
										</split>
										<split pos="right">
											<output> 0.7152310609817505 </output>
										</split>
									</split>
									<split pos="right">
										<output> -0.6485251784324646 </output>
									</split>
								</split>
								<split pos="right">
									<output> 0.8423000574111938 </output>
								</split>
							</split>
							<split pos="right">
								<output> -1.2090154886245728 </output>
							</split>
						</split>
						<split pos="right">
							<output> -1.2807667255401611 </output>
						</split>
					</split>
					<split pos="right">
						<output> -1.3080917596817017 </output>
					</split>
				</split>
				<split pos="right">
					<feature> 7 </feature>
					<threshold> 0.011494253 </threshold>
					<split pos="left">
						<output> 1.21634840965271 </output>
					</split>
					<split pos="right">
						<output> 0.19493576884269714 </output>
					</split>
				</split>
			</split>
			<split pos="right">
				<output> -0.6690000891685486 </output>
			</split>
		</split>
	</tree>
	<tree id="43" weight="0.1">
		<split>
			<feature> 9 </feature>
			<threshold> 0.04493929 </threshold>
			<split pos="left">
				<feature> 10 </feature>
				<threshold> 0.013557619 </threshold>
				<split pos="left">
					<feature> 6 </feature>
					<threshold> 0.29048795 </threshold>
					<split pos="left">
						<feature> 5 </feature>
						<threshold> 0.30306882 </threshold>
						<split pos="left">
							<feature> 5 </feature>
							<threshold> 0.18543218 </threshold>
							<split pos="left">
								<feature> 5 </feature>
								<threshold> 0.0 </threshold>
								<split pos="left">
									<feature> 9 </feature>
									<threshold> 0.0074898815 </threshold>
									<split pos="left">
										<feature> 11 </feature>
										<threshold> 0.037730884 </threshold>
										<split pos="left">
											<output> -0.17514796555042267 </output>
										</split>
										<split pos="right">
											<output> 17.830524444580078 </output>
										</split>
									</split>
									<split pos="right">
										<output> -1.08519446849823 </output>
									</split>
								</split>
								<split pos="right">
									<output> 0.31654834747314453 </output>
								</split>
							</split>
							<split pos="right">
								<output> 0.5845624208450317 </output>
							</split>
						</split>
						<split pos="right">
							<output> -1.1982934474945068 </output>
						</split>
					</split>
					<split pos="right">
						<output> -1.2712630033493042 </output>
					</split>
				</split>
				<split pos="right">
					<feature> 7 </feature>
					<threshold> 0.011428571 </threshold>
					<split pos="left">
						<output> 1.1848615407943726 </output>
					</split>
					<split pos="right">
						<output> 0.16970522701740265 </output>
					</split>
				</split>
			</split>
			<split pos="right">
				<output> -0.673759400844574 </output>
			</split>
		</split>
	</tree>
	<tree id="44" weight="0.1">
		<split>
			<feature> 3 </feature>
			<threshold> 0.07278036 </threshold>
			<split pos="left">
				<feature> 3 </feature>
				<threshold> 0.069472164 </threshold>
				<split pos="left">
					<feature> 1 </feature>
					<threshold> 0.07692308 </threshold>
					<split pos="left">
						<feature> 6 </feature>
						<threshold> 0.37022984 </threshold>
						<split pos="left">
							<feature> 7 </feature>
							<threshold> 0.48861283 </threshold>
							<split pos="left">
								<feature> 10 </feature>
								<threshold> 0.0033894049 </threshold>
								<split pos="left">
									<feature> 11 </feature>
									<threshold> 0.041503973 </threshold>
									<split pos="left">
										<feature> 1 </feature>
										<threshold> 0.0625 </threshold>
										<split pos="left">
											<output> -0.24768699705600739 </output>
										</split>
										<split pos="right">
											<output> 0.8023867607116699 </output>
										</split>
									</split>
									<split pos="right">
										<output> 1.5204414129257202 </output>
									</split>
								</split>
								<split pos="right">
									<feature> 6 </feature>
									<threshold> 0.0037972254 </threshold>
									<split pos="left">
										<output> 0.7433187365531921 </output>
									</split>
									<split pos="right">
										<output> -0.050993602722883224 </output>
									</split>
								</split>
							</split>
							<split pos="right">
								<output> 1.0359373092651367 </output>
							</split>
						</split>
						<split pos="right">
							<output> 1.1311686038970947 </output>
						</split>
					</split>
					<split pos="right">
						<output> -0.7500621676445007 </output>
					</split>
				</split>
				<split pos="right">
					<output> 0.9699962139129639 </output>
				</split>
			</split>
			<split pos="right">
				<output> -0.7366325259208679 </output>
			</split>
		</split>
	</tree>
	<tree id="45" weight="0.1">
		<split>
			<feature> 6 </feature>
			<threshold> 0.007594451 </threshold>
			<split pos="left">
				<feature> 7 </feature>
				<threshold> 0.6127886 </threshold>
				<split pos="left">
					<feature> 4 </feature>
					<threshold> 0.041666668 </threshold>
					<split pos="left">
						<feature> 7 </feature>
						<threshold> 0.003552398 </threshold>
						<split pos="left">
							<output> -0.3751486837863922 </output>
						</split>
						<split pos="right">
							<feature> 7 </feature>
							<threshold> 0.0062305294 </threshold>
							<split pos="left">
								<output> 0.8194085955619812 </output>
							</split>
							<split pos="right">
								<output> 0.5073086023330688 </output>
							</split>
						</split>
					</split>
					<split pos="right">
						<feature> 9 </feature>
						<threshold> 0.011234822 </threshold>
						<split pos="left">
							<feature> 10 </feature>
							<threshold> 0.0067788097 </threshold>
							<split pos="left">
								<feature> 11 </feature>
								<threshold> 0.037730884 </threshold>
								<split pos="left">
									<output> 0.7397253513336182 </output>
								</split>
								<split pos="right">
									<output> 2.575195550918579 </output>
								</split>
							</split>
							<split pos="right">
								<output> 1.1542394161224365 </output>
							</split>
						</split>
						<split pos="right">
							<output> -0.24481786787509918 </output>
						</split>
					</split>
				</split>
				<split pos="right">
					<output> -1.4089816808700562 </output>
				</split>
			</split>
			<split pos="right">
				<feature> 6 </feature>
				<threshold> 0.20125298 </threshold>
				<split pos="left">
					<output> -0.4974302053451538 </output>
				</split>
				<split pos="right">
					<output> 0.3163928985595703 </output>
				</split>
			</split>
		</split>
	</tree>
	<tree id="46" weight="0.1">
		<split>
			<feature> 6 </feature>
			<threshold> 0.007594451 </threshold>
			<split pos="left">
				<feature> 4 </feature>
				<threshold> 0.041666668 </threshold>
				<split pos="left">
					<feature> 5 </feature>
					<threshold> 0.078907244 </threshold>
					<split pos="left">
						<feature> 5 </feature>
						<threshold> 0.07844445 </threshold>
						<split pos="left">
							<feature> 5 </feature>
							<threshold> 0.03851745 </threshold>
							<split pos="left">
								<output> -0.07987624406814575 </output>
							</split>
							<split pos="right">
								<output> 1.5478918552398682 </output>
							</split>
						</split>
						<split pos="right">
							<output> 1.0308722257614136 </output>
						</split>
					</split>
					<split pos="right">
						<output> -0.8663312196731567 </output>
					</split>
				</split>
				<split pos="right">
					<feature> 9 </feature>
					<threshold> 0.011234822 </threshold>
					<split pos="left">
						<feature> 9 </feature>
						<threshold> 0.0037449407 </threshold>
						<split pos="left">
							<output> -1.2499933242797852 </output>
						</split>
						<split pos="right">
							<feature> 10 </feature>
							<threshold> 0.0067788097 </threshold>
							<split pos="left">
								<feature> 4 </feature>
								<threshold> 0.05 </threshold>
								<split pos="left">
									<output> 1.3987075090408325 </output>
								</split>
								<split pos="right">
									<output> -0.6606846451759338 </output>
								</split>
							</split>
							<split pos="right">
								<output> 1.3023306131362915 </output>
							</split>
						</split>
					</split>
					<split pos="right">
						<output> -0.20935046672821045 </output>
					</split>
				</split>
			</split>
			<split pos="right">
				<output> -0.35655105113983154 </output>
			</split>
		</split>
	</tree>
	<tree id="47" weight="0.1">
		<split>
			<feature> 11 </feature>
			<threshold> 0.045277063 </threshold>
			<split pos="left">
				<feature> 11 </feature>
				<threshold> 0.041503973 </threshold>
				<split pos="left">
					<feature> 10 </feature>
					<threshold> 0.0033894049 </threshold>
					<split pos="left">
						<feature> 7 </feature>
						<threshold> 0.003508772 </threshold>
						<split pos="left">
							<feature> 3 </feature>
							<threshold> 0.15548527 </threshold>
							<split pos="left">
								<feature> 5 </feature>
								<threshold> 0.1879587 </threshold>
								<split pos="left">
									<feature> 5 </feature>
									<threshold> 0.18543218 </threshold>
									<split pos="left">
										<output> -0.33844423294067383 </output>
									</split>
									<split pos="right">
										<output> 1.0736920833587646 </output>
									</split>
								</split>
								<split pos="right">
									<output> -1.1645845174789429 </output>
								</split>
							</split>
							<split pos="right">
								<output> 0.9542190432548523 </output>
							</split>
						</split>
						<split pos="right">
							<output> -1.1732178926467896 </output>
						</split>
					</split>
					<split pos="right">
						<feature> 6 </feature>
						<threshold> 0.0037972254 </threshold>
						<split pos="left">
							<feature> 5 </feature>
							<threshold> 0.030672936 </threshold>
							<split pos="left">
								<output> 0.6906770467758179 </output>
							</split>
							<split pos="right">
								<output> 2.208035707473755 </output>
							</split>
						</split>
						<split pos="right">
							<output> -0.1215205267071724 </output>
						</split>
					</split>
				</split>
				<split pos="right">
					<output> 1.0171922445297241 </output>
				</split>
			</split>
			<split pos="right">
				<output> -0.7023056745529175 </output>
			</split>
		</split>
	</tree>
	<tree id="48" weight="0.1">
		<split>
			<feature> 6 </feature>
			<threshold> 0.007594451 </threshold>
			<split pos="left">
				<feature> 4 </feature>
				<threshold> 0.041666668 </threshold>
				<split pos="left">
					<feature> 7 </feature>
					<threshold> 0.003552398 </threshold>
					<split pos="left">
						<output> -0.3306775987148285 </output>
					</split>
					<split pos="right">
						<feature> 7 </feature>
						<threshold> 0.0062305294 </threshold>
						<split pos="left">
							<output> 0.8168742060661316 </output>
						</split>
						<split pos="right">
							<output> 0.40700021386146545 </output>
						</split>
					</split>
				</split>
				<split pos="right">
					<feature> 9 </feature>
					<threshold> 0.011234822 </threshold>
					<split pos="left">
						<feature> 9 </feature>
						<threshold> 0.0037449407 </threshold>
						<split pos="left">
							<output> -1.0589585304260254 </output>
						</split>
						<split pos="right">
							<feature> 6 </feature>
							<threshold> 0.0037972254 </threshold>
							<split pos="left">
								<feature> 11 </feature>
								<threshold> 0.0075461767 </threshold>
								<split pos="left">
									<output> 1.1956939697265625 </output>
								</split>
								<split pos="right">
									<output> 0.2063138633966446 </output>
								</split>
							</split>
							<split pos="right">
								<output> 1.1544486284255981 </output>
							</split>
						</split>
					</split>
					<split pos="right">
						<output> -0.24372102320194244 </output>
					</split>
				</split>
			</split>
			<split pos="right">
				<feature> 5 </feature>
				<threshold> 0.39386234 </threshold>
				<split pos="left">
					<output> -0.38966333866119385 </output>
				</split>
				<split pos="right">
					<output> 0.4534202516078949 </output>
				</split>
			</split>
		</split>
	</tree>
	<tree id="49" weight="0.1">
		<split>
			<feature> 6 </feature>
			<threshold> 0.007594451 </threshold>
			<split pos="left">
				<feature> 4 </feature>
				<threshold> 0.041666668 </threshold>
				<split pos="left">
					<feature> 7 </feature>
					<threshold> 0.003552398 </threshold>
					<split pos="left">
						<output> -0.25554633140563965 </output>
					</split>
					<split pos="right">
						<feature> 9 </feature>
						<threshold> 0.029959528 </threshold>
						<split pos="left">
							<feature> 11 </feature>
							<threshold> 0.0037730883 </threshold>
							<split pos="left">
								<output> 0.2671537697315216 </output>
							</split>
							<split pos="right">
								<output> 1.0310208797454834 </output>
							</split>
						</split>
						<split pos="right">
							<output> -1.108687400817871 </output>
						</split>
					</split>
				</split>
				<split pos="right">
					<feature> 9 </feature>
					<threshold> 0.011234822 </threshold>
					<split pos="left">
						<feature> 11 </feature>
						<threshold> 0.037730884 </threshold>
						<split pos="left">
							<feature> 6 </feature>
							<threshold> 0.0037972254 </threshold>
							<split pos="left">
								<output> 0.9678698778152466 </output>
							</split>
							<split pos="right">
								<output> -0.9852698445320129 </output>
							</split>
						</split>
						<split pos="right">
							<output> 1.253766417503357 </output>
						</split>
					</split>
					<split pos="right">
						<output> -0.2195836901664734 </output>
					</split>
				</split>
			</split>
			<split pos="right">
				<feature> 6 </feature>
				<threshold> 0.20125298 </threshold>
				<split pos="left">
					<output> -0.4597494602203369 </output>
				</split>
				<split pos="right">
					<output> 0.3589794933795929 </output>
				</split>
			</split>
		</split>
	</tree>
	<tree id="50" weight="0.1">
		<split>
			<feature> 6 </feature>
			<threshold> 0.007594451 </threshold>
			<split pos="left">
				<feature> 4 </feature>
				<threshold> 0.041666668 </threshold>
				<split pos="left">
					<feature> 7 </feature>
					<threshold> 0.003552398 </threshold>
					<split pos="left">
						<output> -0.2582364082336426 </output>
					</split>
					<split pos="right">
						<feature> 9 </feature>
						<threshold> 0.029959528 </threshold>
						<split pos="left">
							<feature> 11 </feature>
							<threshold> 0.0037730883 </threshold>
							<split pos="left">
								<output> 0.23282410204410553 </output>
							</split>
							<split pos="right">
								<output> 1.034490704536438 </output>
							</split>
						</split>
						<split pos="right">
							<output> -1.0858509540557861 </output>
						</split>
					</split>
				</split>
				<split pos="right">
					<feature> 9 </feature>
					<threshold> 0.011234822 </threshold>
					<split pos="left">
						<feature> 11 </feature>
						<threshold> 0.037730884 </threshold>
						<split pos="left">
							<output> 0.5587940216064453 </output>
						</split>
						<split pos="right">
							<feature> 6 </feature>
							<threshold> 0.0 </threshold>
							<split pos="left">
								<output> -1.1626724004745483 </output>
							</split>
							<split pos="right">
								<output> 1.3608893156051636 </output>
							</split>
						</split>
					</split>
					<split pos="right">
						<output> -0.19631358981132507 </output>
					</split>
				</split>
			</split>
			<split pos="right">
				<feature> 3 </feature>
				<threshold> 0.10586236 </threshold>
				<split pos="left">
					<output> -0.3126175105571747 </output>
				</split>
				<split pos="right">
					<output> -0.7048366665840149 </output>
				</split>
			</split>
		</split>
	</tree>
	<tree id="51" weight="0.1">
		<split>
			<feature> 11 </feature>
			<threshold> 0.045277063 </threshold>
			<split pos="left">
				<feature> 11 </feature>
				<threshold> 0.041503973 </threshold>
				<split pos="left">
					<feature> 7 </feature>
					<threshold> 0.36448598 </threshold>
					<split pos="left">
						<feature> 6 </feature>
						<threshold> 0.0037972254 </threshold>
						<split pos="left">
							<feature> 10 </feature>
							<threshold> 0.0033894049 </threshold>
							<split pos="left">
								<feature> 5 </feature>
								<threshold> 0.078907244 </threshold>
								<split pos="left">
									<output> 0.1901797652244568 </output>
								</split>
								<split pos="right">
									<output> -0.7533406019210815 </output>
								</split>
							</split>
							<split pos="right">
								<feature> 5 </feature>
								<threshold> 0.030672936 </threshold>
								<split pos="left">
									<output> 0.5940279364585876 </output>
								</split>
								<split pos="right">
									<output> 1.9345321655273438 </output>
								</split>
							</split>
						</split>
						<split pos="right">
							<feature> 7 </feature>
							<threshold> 0.15384616 </threshold>
							<split pos="left">
								<output> -0.41409286856651306 </output>
							</split>
							<split pos="right">
								<output> 0.5918989181518555 </output>
							</split>
						</split>
					</split>
					<split pos="right">
						<output> -1.5677570104599 </output>
					</split>
				</split>
				<split pos="right">
					<feature> 9 </feature>
					<threshold> 0.0074898815 </threshold>
					<split pos="left">
						<output> 1.3194403648376465 </output>
					</split>
					<split pos="right">
						<output> 0.2754589319229126 </output>
					</split>
				</split>
			</split>
			<split pos="right">
				<output> -0.74039226770401 </output>
			</split>
		</split>
	</tree>
	<tree id="52" weight="0.1">
		<split>
			<feature> 11 </feature>
			<threshold> 0.045277063 </threshold>
			<split pos="left">
				<feature> 11 </feature>
				<threshold> 0.041503973 </threshold>
				<split pos="left">
					<feature> 6 </feature>
					<threshold> 0.0037972254 </threshold>
					<split pos="left">
						<feature> 10 </feature>
						<threshold> 0.0033894049 </threshold>
						<split pos="left">
							<feature> 5 </feature>
							<threshold> 0.078907244 </threshold>
							<split pos="left">
								<feature> 5 </feature>
								<threshold> 0.07125795 </threshold>
								<split pos="left">
									<output> -0.046569012105464935 </output>
								</split>
								<split pos="right">
									<output> 1.0316506624221802 </output>
								</split>
							</split>
							<split pos="right">
								<output> -0.5735471248626709 </output>
							</split>
						</split>
						<split pos="right">
							<feature> 5 </feature>
							<threshold> 0.030672936 </threshold>
							<split pos="left">
								<output> 0.5385450720787048 </output>
							</split>
							<split pos="right">
								<output> 1.719487190246582 </output>
							</split>
						</split>
					</split>
					<split pos="right">
						<feature> 5 </feature>
						<threshold> 0.18543218 </threshold>
						<split pos="left">
							<output> -0.4601382315158844 </output>
						</split>
						<split pos="right">
							<output> 0.42057371139526367 </output>
						</split>
					</split>
				</split>
				<split pos="right">
					<feature> 9 </feature>
					<threshold> 0.0074898815 </threshold>
					<split pos="left">
						<output> 1.2673982381820679 </output>
					</split>
					<split pos="right">
						<output> 0.1647174060344696 </output>
					</split>
				</split>
			</split>
			<split pos="right">
				<output> -0.6811585426330566 </output>
			</split>
		</split>
	</tree>
	<tree id="53" weight="0.1">
		<split>
			<feature> 11 </feature>
			<threshold> 0.045277063 </threshold>
			<split pos="left">
				<feature> 11 </feature>
				<threshold> 0.041503973 </threshold>
				<split pos="left">
					<feature> 6 </feature>
					<threshold> 0.0037972254 </threshold>
					<split pos="left">
						<feature> 10 </feature>
						<threshold> 0.0033894049 </threshold>
						<split pos="left">
							<feature> 5 </feature>
							<threshold> 0.078907244 </threshold>
							<split pos="left">
								<feature> 5 </feature>
								<threshold> 0.07125795 </threshold>
								<split pos="left">
									<output> -0.08030115067958832 </output>
								</split>
								<split pos="right">
									<output> 1.028373122215271 </output>
								</split>
							</split>
							<split pos="right">
								<output> -0.5161100625991821 </output>
							</split>
						</split>
						<split pos="right">
							<feature> 5 </feature>
							<threshold> 0.030672936 </threshold>
							<split pos="left">
								<output> 0.491316556930542 </output>
							</split>
							<split pos="right">
								<output> 1.3828648328781128 </output>
							</split>
						</split>
					</split>
					<split pos="right">
						<feature> 5 </feature>
						<threshold> 0.18543218 </threshold>
						<split pos="left">
							<output> -0.437777042388916 </output>
						</split>
						<split pos="right">
							<output> 0.3772861063480377 </output>
						</split>
					</split>
				</split>
				<split pos="right">
					<feature> 9 </feature>
					<threshold> 0.0074898815 </threshold>
					<split pos="left">
						<output> 1.2294741868972778 </output>
					</split>
					<split pos="right">
						<output> 0.14544832706451416 </output>
					</split>
				</split>
			</split>
			<split pos="right">
				<output> -0.62729811668396 </output>
			</split>
		</split>
	</tree>
	<tree id="54" weight="0.1">
		<split>
			<feature> 6 </feature>
			<threshold> 0.005695838 </threshold>
			<split pos="left">
				<feature> 4 </feature>
				<threshold> 0.041666668 </threshold>
				<split pos="left">
					<feature> 5 </feature>
					<threshold> 0.037412163 </threshold>
					<split pos="left">
						<output> -0.12041573226451874 </output>
					</split>
					<split pos="right">
						<feature> 5 </feature>
						<threshold> 0.04094415 </threshold>
						<split pos="left">
							<output> 1.2735244035720825 </output>
						</split>
						<split pos="right">
							<output> 0.0457816943526268 </output>
						</split>
					</split>
				</split>
				<split pos="right">
					<feature> 9 </feature>
					<threshold> 0.011234822 </threshold>
					<split pos="left">
						<feature> 9 </feature>
						<threshold> 0.0037449407 </threshold>
